{"internalDocumentIDStore":{"internalIdToId":["1a1aad29fc9ba87a945b88a84cb614fb","535ea2cd5e229cb4a3945233c4edbbbd","36d72dfd0ac3db00200c681b07e2a9ba"]},"index":{"indexes":{"id":{"type":"Radix","node":{"w":"","s":"","c":{"1":{"w":"1a1aad29fc9ba87a945b88a84cb614fb","s":"1a1aad29fc9ba87a945b88a84cb614fb","c":{},"d":[1],"e":true},"3":{"w":"36d72dfd0ac3db00200c681b07e2a9ba","s":"36d72dfd0ac3db00200c681b07e2a9ba","c":{},"d":[3],"e":true},"5":{"w":"535ea2cd5e229cb4a3945233c4edbbbd","s":"535ea2cd5e229cb4a3945233c4edbbbd","c":{},"d":[2],"e":true}},"d":[],"e":false},"isArray":false},"title":{"type":"Radix","node":{"w":"","s":"","c":{"t":{"w":"timeline","s":"timeline","c":{"_":{"w":"timeline_entry","s":"_entry","c":{},"d":[1],"e":true}},"d":[2],"e":true},"r":{"w":"readme","s":"readme","c":{},"d":[3],"e":true}},"d":[],"e":false},"isArray":false},"path":{"type":"Radix","node":{"w":"","s":"","c":{"t":{"w":"t","s":"t","c":{"e":{"w":"templates","s":"emplates","c":{},"d":[1],"e":true},"i":{"w":"timeline","s":"imeline","c":{"_":{"w":"timeline_entry","s":"_entry","c":{},"d":[1],"e":true}},"d":[2],"e":true}},"d":[],"e":false},"m":{"w":"md","s":"md","c":{},"d":[1,2,3],"e":true},"r":{"w":"readme","s":"readme","c":{},"d":[3],"e":true}},"d":[],"e":false},"isArray":false},"content":{"type":"Radix","node":{"w":"","s":"","c":{"0":{"w":"0","s":"0","c":{"0":{"w":"00","s":"0","c":{},"d":[1,2,3],"e":true},"6":{"w":"06","s":"6","c":{},"d":[1,2,3],"e":true},"7":{"w":"07","s":"7","c":{},"d":[1],"e":true}},"d":[],"e":false},"1":{"w":"1","s":"1","c":{"0":{"w":"10","s":"0","c":{},"d":[2],"e":true}},"d":[3],"e":true},"2":{"w":"2","s":"2","c":{"0":{"w":"20","s":"0","c":{"2":{"w":"2025","s":"25","c":{},"d":[1,2,3],"e":true}},"d":[1,2,3],"e":true},"3":{"w":"23","s":"3","c":{},"d":[2],"e":true}},"d":[3],"e":true},"3":{"w":"3","s":"3","c":{"5":{"w":"35","s":"5","c":{},"d":[3],"e":true}},"d":[3],"e":true},"5":{"w":"58","s":"58","c":{},"d":[1,2,3],"e":true},"n":{"w":"n","s":"n","c":{"o":{"w":"note","s":"ote","c":{"s":{"w":"notes","s":"s","c":{},"d":[1],"e":true}},"d":[1,2,3],"e":true},"u":{"w":"null","s":"ull","c":{},"d":[1],"e":true},"e":{"w":"new","s":"ew","c":{},"d":[3],"e":true}},"d":[],"e":false},"t":{"w":"t","s":"t","c":{"i":{"w":"ti","s":"i","c":{"t":{"w":"title","s":"tle","c":{},"d":[1,2,3],"e":true},"m":{"w":"time","s":"me","c":{"l":{"w":"timeline","s":"line","c":{"_":{"w":"timeline_","s":"_","c":{"e":{"w":"timeline_entry","s":"entry","c":{},"d":[1,2,3],"e":true},"d":{"w":"timeline_data","s":"data","c":{},"d":[2,3],"e":true}},"d":[],"e":false}},"d":[1,2,3],"e":true}},"d":[1,2,3],"e":true}},"d":[],"e":false},"y":{"w":"type","s":"ype","c":{},"d":[1,2],"e":true},"a":{"w":"ta","s":"a","c":{"g":{"w":"tags","s":"gs","c":{},"d":[1],"e":true},"b":{"w":"table","s":"ble","c":{"s":{"w":"tables","s":"s","c":{},"d":[3],"e":true}},"d":[2],"e":true}},"d":[],"e":false},"h":{"w":"th","s":"h","c":{"i":{"w":"this","s":"is","c":{},"d":[3],"e":true},"e":{"w":"the","s":"e","c":{},"d":[3],"e":true}},"d":[],"e":false},"e":{"w":"template","s":"emplate","c":{"r":{"w":"templater","s":"r","c":{},"d":[3],"e":true},"s":{"w":"templates","s":"s","c":{},"d":[3],"e":true}},"d":[3],"e":true},"o":{"w":"to","s":"o","c":{},"d":[3],"e":true}},"d":[],"e":false},"m":{"w":"m","s":"m","c":{"e":{"w":"metadata","s":"etadata","c":{},"d":[1,2,3],"e":true},"o":{"w":"modified","s":"odified","c":{},"d":[1,2,3],"e":true},"d":{"w":"md","s":"d","c":{},"d":[3],"e":true},"a":{"w":"ma","s":"a","c":{"k":{"w":"make","s":"ke","c":{},"d":[3],"e":true},"i":{"w":"main","s":"in","c":{"t":{"w":"maintain","s":"tain","c":{},"d":[3],"e":true}},"d":[3],"e":true}},"d":[],"e":false}},"d":[],"e":false},"d":{"w":"d","s":"d","c":{"a":{"w":"dat","s":"at","c":{"e":{"w":"date","s":"e","c":{},"d":[1,2,3],"e":true},"a":{"w":"data","s":"a","c":{"v":{"w":"dataview","s":"view","c":{},"d":[2,3],"e":true}},"d":[1,3],"e":true}},"d":[],"e":false},"e":{"w":"de","s":"e","c":{"t":{"w":"details","s":"tails","c":{},"d":[1],"e":true},"s":{"w":"desc","s":"sc","c":{"r":{"w":"description","s":"ription","c":{},"d":[1],"e":true}},"d":[2],"e":true}},"d":[],"e":false},"r":{"w":"drive","s":"rive","c":{},"d":[3],"e":true},"i":{"w":"directory","s":"irectory","c":{},"d":[3],"e":true}},"d":[],"e":false},"c":{"w":"c","s":"c","c":{"r":{"w":"creat","s":"reat","c":{"e":{"w":"created","s":"ed","c":{},"d":[1,2,3],"e":true},"i":{"w":"creating","s":"ing","c":{},"d":[3],"e":true}},"d":[],"e":false},"o":{"w":"co","s":"o","c":{"n":{"w":"con","s":"n","c":{"t":{"w":"content","s":"tent","c":{},"d":[1,2,3],"e":true},"f":{"w":"configuration","s":"figuration","c":{},"d":[3],"e":true}},"d":[],"e":false},"l":{"w":"color","s":"lor","c":{},"d":[2],"e":true},"m":{"w":"community","s":"mmunity","c":{},"d":[3],"e":true}},"d":[],"e":false},"a":{"w":"category","s":"ategory","c":{},"d":[1,2],"e":true}},"d":[],"e":false},"b":{"w":"b","s":"b","c":{"l":{"w":"block","s":"lock","c":{},"d":[1,2,3],"e":true},"y":{"w":"by","s":"y","c":{},"d":[3],"e":true}},"d":[],"e":false},"-":{"w":"-","s":"-","c":{"-":{"w":"---","s":"--","c":{},"d":[1],"e":true}},"d":[1,3],"e":true},"e":{"w":"e","s":"e","c":{"v":{"w":"event","s":"vent","c":{},"d":[1],"e":true},"n":{"w":"entr","s":"ntr","c":{"i":{"w":"entries","s":"ies","c":{},"d":[2,3],"e":true},"y":{"w":"entry","s":"y","c":{},"d":[3],"e":true}},"d":[],"e":false},"x":{"w":"explore","s":"xplore","c":{},"d":[3],"e":true}},"d":[],"e":false},"l":{"w":"l","s":"l","c":{"o":{"w":"location","s":"ocation","c":{},"d":[1],"e":true},"i":{"w":"li","s":"i","c":{"n":{"w":"links","s":"nks","c":{},"d":[1,3],"e":true},"s":{"w":"list","s":"st","c":{},"d":[2],"e":true},"m":{"w":"limit","s":"mit","c":{},"d":[2],"e":true}},"d":[],"e":false}},"d":[],"e":false},"r":{"w":"re","s":"re","c":{"l":{"w":"related","s":"lated","c":{"_":{"w":"related_items","s":"_items","c":{},"d":[1],"e":true}},"d":[1,3],"e":true},"c":{"w":"recent","s":"cent","c":{},"d":[2],"e":true},"a":{"w":"readme","s":"adme","c":{},"d":[3],"e":true},"q":{"w":"required","s":"quired","c":{},"d":[3],"e":true},"f":{"w":"reference","s":"ference","c":{},"d":[3],"e":true}},"d":[],"e":false},"i":{"w":"i","s":"i","c":{"t":{"w":"items","s":"tems","c":{},"d":[1],"e":true},"n":{"w":"in","s":"n","c":{"t":{"w":"inte","s":"te","c":{"g":{"w":"integrat","s":"grat","c":{"i":{"w":"integration","s":"ion","c":{},"d":[3],"e":true},"e":{"w":"integrated","s":"ed","c":{},"d":[3],"e":true}},"d":[],"e":false},"r":{"w":"interface","s":"rface","c":{},"d":[3],"e":true}},"d":[],"e":false},"s":{"w":"inst","s":"st","c":{"r":{"w":"instructions","s":"ructions","c":{},"d":[3],"e":true},"a":{"w":"install","s":"all","c":{},"d":[3],"e":true}},"d":[],"e":false}},"d":[3],"e":true},"s":{"w":"is","s":"s","c":{},"d":[3],"e":true}},"d":[],"e":false},"s":{"w":"s","s":"s","c":{"o":{"w":"so","s":"o","c":{"v":{"w":"sovereign","s":"vereign","c":{"_":{"w":"sovereign_data_links","s":"_data_links","c":{},"d":[1],"e":true}},"d":[1,2,3],"e":true},"r":{"w":"sort","s":"rt","c":{"e":{"w":"sorted","s":"ed","c":{},"d":[3],"e":true}},"d":[2],"e":true}},"d":[],"e":false},"y":{"w":"system","s":"ystem","c":{},"d":[3],"e":true},"e":{"w":"se","s":"e","c":{"t":{"w":"setup","s":"tup","c":{},"d":[3],"e":true},"c":{"w":"section","s":"ction","c":{},"d":[3],"e":true}},"d":[],"e":false},"t":{"w":"st","s":"t","c":{"o":{"w":"store","s":"ore","c":{"d":{"w":"stored","s":"d","c":{},"d":[3],"e":true}},"d":[3],"e":true},"r":{"w":"structure","s":"ructure","c":{},"d":[3],"e":true}},"d":[],"e":false},"u":{"w":"sure","s":"ure","c":{},"d":[3],"e":true}},"d":[],"e":false},"f":{"w":"f","s":"f","c":{"r":{"w":"fro","s":"ro","c":{"m":{"w":"from","s":"m","c":{},"d":[2],"e":true},"n":{"w":"frontmatter","s":"ntmatter","c":{},"d":[3],"e":true}},"d":[],"e":false},"o":{"w":"fo","s":"o","c":{"l":{"w":"folder","s":"lder","c":{},"d":[3],"e":true},"r":{"w":"for","s":"r","c":{},"d":[3],"e":true}},"d":[],"e":false},"i":{"w":"fi","s":"i","c":{"l":{"w":"fil","s":"l","c":{"l":{"w":"fill","s":"l","c":{},"d":[3],"e":true},"e":{"w":"files","s":"es","c":{},"d":[3],"e":true}},"d":[],"e":false},"e":{"w":"fields","s":"elds","c":{},"d":[3],"e":true}},"d":[],"e":false}},"d":[],"e":false},"w":{"w":"w","s":"w","c":{"h":{"w":"where","s":"here","c":{},"d":[2],"e":true},"i":{"w":"with","s":"ith","c":{},"d":[3],"e":true}},"d":[],"e":false},"v":{"w":"v","s":"v","c":{"i":{"w":"vi","s":"i","c":{"e":{"w":"view","s":"ew","c":{"i":{"w":"viewing","s":"ing","c":{},"d":[3],"e":true}},"d":[2,3],"e":true},"s":{"w":"visualization","s":"sualization","c":{},"d":[3],"e":true}},"d":[],"e":false},"a":{"w":"vault","s":"ault","c":{},"d":[3],"e":true}},"d":[],"e":false},"a":{"w":"a","s":"a","c":{"n":{"w":"an","s":"n","c":{"d":{"w":"and","s":"d","c":{},"d":[3],"e":true}},"d":[3],"e":true},"s":{"w":"as","s":"s","c":{},"d":[3],"e":true},"l":{"w":"all","s":"ll","c":{},"d":[3],"e":true},"r":{"w":"are","s":"re","c":{},"d":[3],"e":true},"u":{"w":"automatically","s":"utomatically","c":{},"d":[3],"e":true},"t":{"w":"attachments","s":"ttachments","c":{},"d":[3],"e":true}},"d":[],"e":false},"o":{"w":"o","s":"o","c":{"b":{"w":"obsidian","s":"bsidian","c":{"-":{"w":"obsidian-based","s":"-based","c":{},"d":[3],"e":true}},"d":[3],"e":true},"p":{"w":"open","s":"pen","c":{},"d":[3],"e":true},"u":{"w":"out","s":"ut","c":{},"d":[3],"e":true}},"d":[],"e":false},"p":{"w":"plugins","s":"plugins","c":{},"d":[3],"e":true},"u":{"w":"us","s":"us","c":{"a":{"w":"usage","s":"age","c":{},"d":[3],"e":true},"e":{"w":"use","s":"e","c":{},"d":[3],"e":true}},"d":[],"e":false}},"d":[],"e":false},"isArray":false},"embeddingModel":{"type":"Radix","node":{"w":"","s":"","c":{"t":{"w":"text-embedding-004","s":"text-embedding-004","c":{},"d":[1,2,3],"e":true}},"d":[],"e":false},"isArray":false},"created_at":{"type":"AVL","node":{"root":{"k":1750347557171,"v":[1],"l":{"k":0,"v":[],"l":null,"r":null,"h":0},"r":{"k":1750347557175,"v":[2],"l":null,"r":{"k":1750347557177,"v":[3],"l":null,"r":null,"h":0},"h":1},"h":2}},"isArray":false},"ctime":{"type":"AVL","node":{"root":{"k":1750345087291,"v":[1],"l":{"k":0,"v":[],"l":null,"r":null,"h":0},"r":{"k":1750345103186,"v":[2],"l":null,"r":{"k":1750345115187,"v":[3],"l":null,"r":null,"h":0},"h":1},"h":2}},"isArray":false},"mtime":{"type":"AVL","node":{"root":{"k":1750345087291,"v":[1],"l":{"k":0,"v":[],"l":null,"r":null,"h":0},"r":{"k":1750345103188,"v":[2],"l":null,"r":{"k":1750345115187,"v":[3],"l":null,"r":null,"h":0},"h":1},"h":2}},"isArray":false},"tags":{"type":"Radix","node":{"w":"","s":"","c":{},"d":[],"e":false},"isArray":true},"extension":{"type":"Radix","node":{"w":"","s":"","c":{"m":{"w":"md","s":"md","c":{},"d":[1,2,3],"e":true}},"d":[],"e":false},"isArray":false}},"vectorIndexes":{"embedding":{"size":768,"vectors":{"1a1aad29fc9ba87a945b88a84cb614fb":[0.9999739524434988,[0.023413142189383507,0.04631991684436798,-0.060657400637865067,-0.019774435088038445,0.0246509350836277,0.0428939126431942,0.02328347973525524,0.02277427911758423,0.03224017098546028,0.0172587763518095,-0.01798909157514572,0.05443856865167618,0.06653042137622833,0.02696218527853489,-0.013540665619075298,0.003062405390664935,0.013851216994225979,0.009731827303767204,-0.07206913828849792,-0.021206410601735115,-0.051508210599422455,-0.03379027545452118,0.01939290761947632,-0.02422337234020233,0.034375619143247604,-0.09974063187837601,0.0007855193689465523,-0.004091330803930759,-0.00576400849968195,-0.02017473615705967,-0.02595793828368187,0.05553479492664337,0.02818899042904377,-0.03628172725439072,0.04085847735404968,-0.005715601146221161,0.027138395234942436,-0.00372904259711504,0.0388396792113781,-0.009283785708248615,-0.054445356130599976,-0.03210547938942909,0.01328945066779852,0.023945726454257965,-0.04575032368302345,-0.03914584964513779,-0.04353982210159302,-0.004619909450411797,-0.01800565794110298,0.05007649585604668,0.045785289257764816,0.006311290897428989,-0.026363028213381767,-0.01036048959940672,-0.02835971862077713,-0.06359199434518814,-0.05483797937631607,-0.07588492333889008,0.060386497527360916,0.0011379992356523871,-0.0046417429111897945,-0.007170684635639191,-0.03775859996676445,-0.025409433990716934,-0.014329004101455212,-0.0014777110191062093,0.015666084364056587,0.006842125207185745,-0.06619487702846527,0.014524168334901333,-0.033853959292173386,0.06990651041269302,-0.053042564541101456,-0.020170992240309715,0.02562495321035385,0.00666879303753376,-0.0016987520502880216,0.00799078494310379,0.0443962961435318,0.05780241638422012,-0.017946867272257805,0.015768740326166153,0.02811512164771557,0.04243302717804909,0.020089633762836456,0.009274396114051342,0.019761309027671814,-0.03999631851911545,-0.08462518453598022,-0.05678481236100197,0.04118254408240318,0.0440681017935276,-0.02204000949859619,0.026306763291358948,0.07964882999658585,-0.057108499109745026,-0.052129652351140976,-0.12428027391433716,0.08876179158687592,0.0763816088438034,-0.021987196058034897,-0.007918054237961769,0.035399626940488815,-0.003895973786711693,0.04488484561443329,-0.029000014066696167,-0.0102037088945508,-0.0472320020198822,-0.04946838319301605,0.029849963262677193,0.004313742741942406,-0.004895387217402458,0.003494938835501671,-0.00827394612133503,-0.03890090808272362,0.013773373328149319,0.015108649618923664,0.00671811169013381,-0.04632456973195076,-0.030325204133987427,0.058659058064222336,0.0003328382736071944,-0.04319114238023758,0.05373230576515198,0.05521434172987938,0.0036200773902237415,-0.029457584023475647,-0.016307968646287918,-0.04413297027349472,-0.006306133233010769,0.029792791232466698,-0.037369173020124435,0.015285328030586243,0.02822866663336754,-0.005795546807348728,-0.03229396045207977,0.031442366540431976,0.008474975824356079,0.02113700471818447,-0.015241069719195366,0.011773260310292244,0.013682800345122814,-0.07513957470655441,0.05347179248929024,-0.004475451074540615,-0.010047480463981628,0.023806115612387657,0.06597631424665451,-0.014963634312152863,0.013356426730751991,-0.061816997826099396,-0.003020591801032424,0.002381492406129837,-0.060626592487096786,-0.024204611778259277,-0.034027621150016785,0.04429250210523605,-0.04880385473370552,-0.015671616420149803,0.02266358584165573,0.024539470672607422,-0.05965952202677727,0.030534861609339714,0.07474809885025024,0.02268040180206299,-0.0363977886736393,-0.06510111689567566,-0.029249778017401695,0.029589492827653885,-0.015034116804599762,-0.03888798877596855,-0.056056275963783264,-0.06532476097345352,-0.021475637331604958,-0.040605444461107254,0.04822073131799698,-0.03479791060090065,-0.020584726706147194,-0.03108208067715168,-0.019139427691698074,0.07397754490375519,-0.00431199511513114,-0.004182457458227873,-0.012132731266319752,-0.02337522991001606,0.014549239538609982,0.04909200221300125,-0.000671131128910929,0.009200723841786385,0.054217319935560226,0.0027541203889995813,-0.008477943018078804,-0.0351300872862339,0.0359310582280159,-0.008456939831376076,0.04313232749700546,0.05433209240436554,-0.02799050509929657,-0.06913064420223236,-0.04390043392777443,0.0616915337741375,0.039537619799375534,-0.034536175429821014,0.006206819321960211,-0.05913970619440079,0.03701804205775261,-0.05960012599825859,-0.03758680447936058,-0.0070215873420238495,0.02698245272040367,-0.039679817855358124,-0.009079108946025372,-0.014908192679286003,-0.042755112051963806,-0.010403778403997421,-0.03327969089150429,0.06521762907505035,0.03926605358719826,0.07090003788471222,-0.05403084680438042,-0.000915203127078712,-0.016822243109345436,-0.001653554500080645,0.042096931487321854,0.019580470398068428,-0.0022590807639062405,-0.08970700949430466,-0.018582796677947044,0.005710546858608723,-0.0370064377784729,0.026364613324403763,0.029933981597423553,-0.009008054621517658,0.0398680716753006,-0.024361295625567436,0.05677618458867073,0.012118790298700333,-0.03843574970960617,-0.05000302940607071,0.002256144303828478,0.017904357984662056,-0.04265638813376427,0.012575020082294941,0.015469416044652462,0.02111503854393959,0.02895619533956051,-0.020262017846107483,0.03668343648314476,-0.028326405212283134,-0.06143222749233246,0.0020001796074211597,-0.04209739342331886,0.016420483589172363,-0.04692482203245163,-0.032978907227516174,0.01598781906068325,0.037702810019254684,-0.03387489169836044,0.0027366725262254477,0.0018700609216466546,-0.007827362045645714,0.00010222208948107436,-0.015055646188557148,-0.05800843611359596,-0.04292343184351921,-0.019844798371195793,-0.029132269322872162,-0.03417671471834183,0.0512155257165432,-0.03654390200972557,0.025298921391367912,-0.06671881675720215,-0.08611186593770981,-0.021642550826072693,-0.06347688287496567,0.024063056334853172,0.018403347581624985,-0.0012636622413992882,-0.07692617177963257,-0.06514732539653778,0.011549326591193676,-0.021143751218914986,-0.03487604483962059,-0.0053827338851988316,0.011031582951545715,0.0012346406001597643,-0.006858333013951778,-0.028137361630797386,0.027636291459202766,-0.022431179881095886,0.01803531125187874,0.07475379854440689,-0.040273308753967285,0.011981637217104435,0.02542044408619404,-0.007859325967729092,0.04536115378141403,0.0935995802283287,0.025376982986927032,-0.03786386549472809,0.036482322961091995,0.015559009276330471,-0.022903917357325554,0.04821063205599785,-0.00956711731851101,0.00637551536783576,-0.0670943334698677,-0.004484194330871105,-0.021240154281258583,-0.007376641500741243,0.00846020132303238,0.021221930161118507,-0.003292905865237117,-0.022146783769130707,-0.04135150834918022,-0.025407452136278152,-0.1844484508037567,0.007845385931432247,0.00873204693198204,0.007595933508127928,-0.013118132017552853,0.00667814165353775,-0.06394447386264801,0.007992399856448174,0.027980603277683258,-0.025537706911563873,0.008258411660790443,-0.02772245556116104,0.054881200194358826,0.004464298952370882,0.01434345729649067,-0.013257154263556004,-0.0067490399815142155,-0.025718094781041145,-0.01868601143360138,0.050827983766794205,-0.05194416642189026,-0.027893461287021637,0.06888089329004288,0.03258238732814789,0.022960981354117393,0.005809524096548557,0.014754806645214558,-0.00004141273893765174,-0.018269188702106476,-0.041226208209991455,0.05207132175564766,0.017771609127521515,0.022074474021792412,0.009745211340487003,0.02425372414290905,0.04701738432049751,-0.009592493064701557,-0.0006320088868960738,0.010256309062242508,0.007697271183133125,0.04586441069841385,-0.008394228294491768,0.04473618417978287,-0.057270076125860214,-0.017005594447255135,0.042044252157211304,-0.0049891602247953415,0.03501157462596893,-0.025246622040867805,0.023780090734362602,-0.015202604234218597,0.058518942445516586,-0.024954060092568398,0.009798645973205566,0.01570199802517891,-0.003964663948863745,0.020450768992304802,-0.00500210328027606,0.009908615611493587,-0.009853541851043701,-0.032847799360752106,0.06417719274759293,0.012856724672019482,-0.023314950987696648,0.01314306166023016,-0.017873937264084816,-0.039656445384025574,0.035402800887823105,-0.006151650100946426,0.060385506600141525,-0.07665908336639404,0.0375283844769001,-0.011875846423208714,-0.03538855165243149,-0.04775404557585716,0.04301028326153755,0.019403038546442986,0.0376838818192482,0.03708985075354576,0.03763588145375252,-0.0009643000084906816,0.032422877848148346,-0.03127558156847954,-0.016779843717813492,-0.05292476341128349,-0.024679848924279213,0.07187776267528534,-0.03536134213209152,-0.013520012609660625,-0.01487054768949747,0.05749157443642616,0.019387172535061836,-0.02413194626569748,-0.0007498097838833928,0.001757197082042694,-0.05868568271398544,-0.00475230161100626,0.034776218235492706,-0.01896452158689499,0.011622429825365543,0.004088429734110832,0.00161740614566952,0.014492060989141464,0.05973116308450699,0.027627602219581604,0.017899872735142708,0.03796122595667839,0.018162626773118973,-0.03176092728972435,-0.09412718564271927,0.011462549678981304,-0.01919044554233551,0.010720646940171719,0.010158033110201359,0.03732315078377724,0.0575583390891552,0.007060816045850515,0.013163254596292973,0.017847398295998573,0.047603003680706024,0.0137019082903862,-0.045307256281375885,0.021169263869524002,0.002965702209621668,0.019271353259682655,0.004878073465079069,0.01655268669128418,0.03340847045183182,0.004251270554959774,0.01166633889079094,0.0011604635510593653,0.02539629489183426,0.02990211546421051,-0.06173735484480858,-0.014433144591748714,0.003701635869219899,0.043623749166727066,-0.07972292602062225,-0.09080479294061661,0.05320750176906586,0.041927170008420944,0.020006805658340454,0.007444733288139105,-0.025935156270861626,-0.061365190893411636,-0.017246639356017113,0.07001333683729172,-0.030797354876995087,0.008892199955880642,-0.031412627547979355,-0.03709922358393669,0.027026604861021042,-0.04356115683913231,-0.028338149189949036,0.037232331931591034,0.031953588128089905,0.0375077910721302,0.026439331471920013,-0.055825378745794296,0.043055128306150436,0.036053527146577835,0.012332617305219173,0.03662801906466484,0.03505370765924454,-0.029227089136838913,0.03738560527563095,-0.05704117938876152,0.027558544650673866,0.0446532741189003,-0.035891588777303696,0.0066165984608232975,0.005371573846787214,0.033201370388269424,-0.038935337215662,0.021603362634778023,0.008174424059689045,-0.023048143833875656,-0.06054869294166565,-0.015820525586605072,0.0036850220058113337,0.014465206302702427,-0.012667576782405376,0.01245911419391632,0.02440030872821808,0.07912401854991913,0.005883209407329559,-0.004330100025981665,-0.0035912692546844482,-0.036435794085264206,-0.006793569307774305,0.00522672850638628,-0.03552955761551857,0.06288112699985504,0.07016229629516602,0.0611034594476223,-0.024013785645365715,0.003453862154856324,0.01730109564960003,-0.014535690657794476,0.006011301651597023,-0.07594809681177139,0.0004496112815104425,-0.0006790327606722713,0.03712370619177818,-0.009320658631622791,-0.03202768415212631,0.04838060215115547,-0.04330769181251526,0.03198990225791931,-0.06770851463079453,0.0066444906406104565,0.023503640666604042,0.03859664127230644,0.0046468270011246204,-0.035664621740579605,0.06875916570425034,0.09344226866960526,0.013065926730632782,0.04120513051748276,0.04126366227865219,0.022127976641058922,0.02119293436408043,0.03864866867661476,0.03571101650595665,0.00019640599202830344,0.030155524611473083,0.03375228866934776,0.04175998643040657,0.016139261424541473,-0.003946009092032909,-0.01943998970091343,-0.005361414514482021,0.011977898888289928,0.05752861499786377,0.018424017354846,-0.0022777910344302654,-0.022068742662668228,-0.0018989165546372533,-0.0012566212099045515,-0.04278365522623062,0.022243719547986984,-0.01871860958635807,-0.04347371682524681,-0.009145424701273441,0.006425936706364155,-0.034861158579587936,-0.028445197269320488,0.0011344815138727427,-0.001565458020195365,0.01108439452946186,0.02754180133342743,0.07257138937711716,-0.02717391960322857,-0.027133511379361153,0.006655564531683922,0.0010887720854952931,0.056051019579172134,-0.055637162178754807,0.010694493539631367,0.006669686641544104,-0.045431457459926605,-0.015181721188127995,0.021851355209946632,0.004623059649020433,0.004713620990514755,0.010564761236310005,0.06212199851870537,0.021749624982476234,-0.020277125760912895,-0.0037661935202777386,0.022015275433659554,-0.03097260184586048,-0.013230439275503159,0.006422589533030987,-0.009704275988042355,-0.009216031059622765,0.0007438954198732972,-0.04427150636911392,0.01640985533595085,-0.058041974902153015,-0.004306665156036615,0.007712768856436014,0.0005493086064234376,-0.024734195321798325,0.04320168122649193,-0.028686726465821266,0.050303105264902115,-0.004476554226130247,-0.01996137574315071,-0.04930429905653,-0.01456545665860176,-0.09186623990535736,0.056045085191726685,0.07189331948757172,0.03648052364587784,0.03076660819351673,0.002577768173068762,-0.05365768447518349,-0.03750837966799736,0.02059430070221424,-0.06656083464622498,0.0061470502987504005,0.017303716391324997,0.01560934167355299,0.041568323969841,0.030218882486224174,-0.004344062879681587,-0.03514569625258446,-0.020119162276387215,-0.046668797731399536,-0.041900988668203354,0.007112433668226004,0.01644304394721985,-0.01843707077205181,0.008430451154708862,0.04165705293416977,0.032065823674201965,-0.015664955601096153,-0.011952508240938187,-0.028886372223496437,-0.03571925684809685,0.028841787949204445,0.010217532515525818,-0.06973641365766525,0.024954676628112793,0.0415073037147522,0.03904800862073898,-0.02458912879228592,-0.07256726175546646,-0.030865462496876717,-0.0005630686646327376,-0.00571500463411212,0.048534419387578964,0.04712194576859474,-0.024873973801732063,0.07104510068893433,-0.042634494602680206,0.013023356907069683,-0.024035649374127388,-0.002934404881671071,-0.046986062079668045,-0.014925776049494743,-0.019939294084906578,0.0016470710979774594,-0.014884059317409992,-0.018077341839671135,-0.010163528844714165,-0.006686655804514885,0.0008028828888200223,-0.00980820506811142,-0.06978065520524979,-0.059045515954494476,-0.020392663776874542,-0.015957331284880638,-0.041616473346948624,-0.07201486080884933,-0.027099262923002243,0.008497093804180622,0.023263299837708473,-0.08746088296175003,0.052717678248882294,0.023834742605686188,-0.00429704412817955,0.018005892634391785,-0.02237810753285885,0.005008411593735218,0.03732047230005264,-0.018791139125823975,0.02125454694032669,-0.0011652037501335144,-0.019208380952477455,-0.03791655972599983,-0.009941105730831623,0.00462397001683712,-0.01605936512351036,-0.059681233018636703,-0.05516594648361206,0.025913674384355545,-0.029298044741153717,0.03486015647649765,-0.050874195992946625,0.03920798376202583,0.002127308864146471,-0.023954935371875763,0.009617427363991737,0.00628112955018878,-0.03286657854914665,-0.05503571406006813,0.02036638744175434,0.007197680417448282,0.05751098319888115,0.026878949254751205,-0.05377224460244179,0.007469627074897289,-0.02846400998532772,0.0431465208530426,0.030310476198792458,-0.005588483531028032,0.003073260420933366,0.022865237668156624,0.03717562556266785,0.03602535277605057,0.0544988214969635,0.025068864226341248,0.05195099115371704,-0.018661627545952797,0.020107271149754524,0.036926399916410446,0.0338653139770031,0.0018418432446196675,-0.022361043840646744,0.006428021937608719,0.013367231003940105,0.03049965761601925,0.032956622540950775,-0.013783133588731289,-0.020052876323461533,0.014390159398317337,0.004281677305698395,-0.04094066470861435,0.0205348189920187,-0.027298836037516594,-0.02471785619854927,-0.013990498147904873,0.03264768049120903,-0.011411230079829693,-0.010882092639803886,-0.03901619836688042,0.02654343470931053,0.03569699078798294,-0.012239395640790462,-0.004357376601547003,-0.00756135443225503,-0.04918602854013443,-0.10088370740413666,0.008838528767228127,-0.018984002992510796,0.005843466613441706,0.033487334847450256,0.01806451380252838,0.027715463191270828,-0.017803646624088287,0.022950442507863045,0.0038196968380361795,0.0100810956209898,0.05298152565956116,-0.038470227271318436,0.021590353921055794,-0.02599339187145233,-0.023424452170729637,0.009755934588611126,-0.03300190716981888]],"535ea2cd5e229cb4a3945233c4edbbbd":[0.999979853773636,[-0.0011310770642012358,0.01955675520002842,-0.0669318214058876,0.003061980241909623,0.028222227469086647,0.0643937885761261,0.023985164240002632,0.03285733610391617,0.019656090065836906,0.018354369327425957,-0.018709253519773483,0.04018491134047508,0.04992087557911873,0.03304486721754074,-0.015168228186666965,-0.03107803501188755,0.018944019451737404,-0.010532674379646778,-0.04479983076453209,-0.011797784827649593,-0.04686693102121353,-0.052728328853845596,0.02306929975748062,-0.0025229742750525475,-0.0007430699188262224,-0.12703631818294525,-0.013718648813664913,-0.014874817803502083,-0.008975671604275703,-0.02154591493308544,-0.011851434595882893,0.04845977574586868,0.04846656695008278,-0.05068029463291168,0.030971815809607506,-0.011108994483947754,0.005255877505987883,0.04359222576022148,0.013567445799708366,-0.03301963955163956,-0.04046987369656563,-0.020581576973199844,0.011933956295251846,0.023448072373867035,-0.0259886272251606,-0.015060863457620144,-0.022714665159583092,-0.027224918827414513,0.003020093310624361,0.05849732458591461,0.07333337515592575,0.010908020660281181,0.0028176133055239916,0.0012451594229787588,-0.002198666101321578,-0.053928688168525696,-0.06852849572896957,-0.05177222192287445,0.053259968757629395,-0.031149238348007202,0.025019289925694466,0.025796329602599144,-0.033812254667282104,-0.010012815706431866,-0.0071955188177526,-0.028443004935979843,0.020456066355109215,-0.02776206098496914,-0.08022797852754593,0.023627610877156258,-0.040896426886320114,0.04942016676068306,-0.07211492210626602,-0.024916375055909157,0.009050218388438225,0.04715326428413391,-0.019090168178081512,-0.02881392277777195,-0.008629055693745613,0.06481651961803436,-0.026651963591575623,0.00821646023541689,0.05541006103157997,0.04689064621925354,0.031017374247312546,0.014320570975542068,0.005840408615767956,0.013356712646782398,-0.06929880380630493,-0.042009659111499786,0.04563344642519951,0.03405097499489784,-0.036453962326049805,0.012357402592897415,0.12455756962299347,-0.061957232654094696,-0.03074222058057785,-0.13238009810447693,0.075056292116642,0.045826178044080734,-0.028309540823101997,-0.012516017071902752,-0.005865384358912706,0.008547507226467133,0.041226137429475784,-0.02893989160656929,0.0026808681432157755,-0.030013777315616608,-0.02991325408220291,0.013730296865105629,-0.0022601168602705,-0.0396941639482975,0.02799341455101967,-0.010831426829099655,-0.0022904216311872005,0.0017811674624681473,0.006980357225984335,-0.010479683987796307,-0.046290814876556396,-0.0002737829345278442,0.010658021084964275,0.0032826296519488096,-0.04367996007204056,0.03268894925713539,0.040845151990652084,0.01965233124792576,-0.035448092967271805,0.029793525114655495,-0.040850695222616196,-0.012374019250273705,-0.0037244518753141165,-0.03292085975408554,0.005057997070252895,0.02929805964231491,-0.03713840991258621,0.01017727330327034,0.02471279539167881,-0.008141222409904003,0.03126029670238495,-0.0034265760332345963,0.01970149576663971,0.04639483988285065,-0.05704030394554138,0.05218847468495369,-0.011029530316591263,-0.018473615869879723,0.013815752230584621,0.018133556470274925,-0.02403605915606022,0.025166982784867287,-0.027971098199486732,-0.026363365352153778,-0.0009571692207828164,-0.05802622437477112,0.0026862001977860928,-0.01870349608361721,0.024743176996707916,-0.0573074072599411,-0.025711186230182648,-0.006818754598498344,0.02402687817811966,-0.027571814134716988,0.020768268033862114,0.08333169668912888,0.019591880962252617,-0.020290696993470192,-0.06955809146165848,-0.04233076795935631,0.018718618899583817,0.01263548992574215,-0.02820643223822117,-0.04197147861123085,-0.10957269370555878,-0.056585174053907394,-0.023557355627417564,-0.0007627896266058087,-0.018473701551556587,-0.026674946770071983,-0.03090289607644081,-0.04368331655859947,0.07768955826759338,-0.011289376765489578,-0.011869189329445362,-0.04462127387523651,-0.0162946954369545,0.03960634768009186,0.04703023284673691,-0.0026188031770288944,-0.008007164113223553,0.03105814941227436,-0.046978071331977844,-0.029059099033474922,-0.03730516880750656,0.059174004942178726,0.011704455129802227,0.02228802815079689,0.02161218598484993,-0.05273112282156944,-0.06719951331615448,-0.020243896171450615,0.05477581545710564,0.05242788791656494,-0.01410301961004734,-0.012582479976117611,-0.03978537395596504,0.01234527863562107,-0.0522950142621994,-0.009759350679814816,0.00613299198448658,0.012739689089357853,-0.044595636427402496,0.015098639763891697,-0.034407541155815125,-0.05676945671439171,-0.027683531865477562,-0.015054351650178432,0.068129763007164,0.04288548231124878,0.09346276521682739,-0.06277813762426376,0.0012881559086963534,-0.014607430435717106,-0.010503165423870087,0.009300235658884048,-0.006414811126887798,0.006070632487535477,-0.09439724683761597,-0.002088961424306035,0.017616447061300278,-0.04286130145192146,0.04626638814806938,0.051208872348070145,-0.01946099102497101,0.017712393775582314,-0.023453030735254288,0.03629635274410248,0.030049365013837814,-0.02235363982617855,-0.03507395088672638,-0.005957146640866995,0.006747495848685503,-0.023940633982419968,0.029532233253121376,0.021034926176071167,0.009943319484591484,0.012004250660538673,-0.023772407323122025,0.023720014840364456,-0.021796347573399544,-0.03781580552458763,-0.011385641992092133,-0.031948599964380264,-0.006305756978690624,-0.015567145310342312,-0.009783524088561535,-0.012215249240398407,0.013166273012757301,-0.04190123826265335,0.01839030720293522,-0.02610003389418125,-0.012055984698235989,-0.010681334882974625,-0.009445182047784328,-0.05851993337273598,-0.04474605619907379,-0.008077668957412243,-0.03777923062443733,-0.03370256349444389,0.011870304122567177,0.003502625273540616,0.04426293447613716,-0.0467892661690712,-0.08713372051715851,0.0038154637441039085,-0.057148970663547516,0.029285771772265434,-0.0075597623363137245,0.03511401638388634,-0.07810308039188385,-0.08803649246692657,0.007465967442840338,0.009678068570792675,-0.02254154533147812,-0.02387179434299469,-0.0023832570295780897,0.0018490541260689497,0.01596866548061371,-0.04300113022327423,0.03340323269367218,-0.015035300515592098,0.004659989383071661,0.08700940012931824,-0.02548295445740223,0.040855973958969116,0.04403670132160187,-0.0014679764863103628,0.06975484639406204,0.05822289362549782,0.009024364873766899,-0.00858070608228445,0.027048416435718536,0.04628640413284302,-0.03666405379772186,0.045307233929634094,0.02371327579021454,0.005469517782330513,-0.057722508907318115,-0.04236270859837532,-0.054508011788129807,0.005385211668908596,0.014022944495081902,0.04409993812441826,-0.011954089626669884,-0.04278227314352989,-0.02007882110774517,-0.022335784509778023,-0.1843116283416748,-0.00040365863242186606,-0.0104142464697361,0.01315309852361679,-0.002290444215759635,0.029587367549538612,-0.05820426344871521,0.0318114198744297,0.024840526282787323,-0.016836684197187424,0.03595290705561638,-0.0019031381234526634,0.0449485182762146,0.008205026388168335,0.05015091598033905,-0.015906501561403275,-0.028502756729722023,0.0016613774932920933,-0.0012891098158434033,0.08283500373363495,-0.0024684700183570385,-0.038386233150959015,0.044245462864637375,0.05884648114442825,0.048702988773584366,-0.0310188177973032,0.016086209565401077,-0.026687325909733772,-0.04952901229262352,-0.05993904173374176,0.058592721819877625,-0.011098477989435196,0.018801603466272354,0.03818972408771515,0.017981234937906265,0.03130977973341942,-0.021313441917300224,-0.030378196388483047,0.020410846918821335,-0.0018665253883227706,0.01562667079269886,0.01499117910861969,0.06238797679543495,-0.031100431457161903,-0.02391553483903408,0.034531284123659134,-0.0001228095352416858,0.04045955836772919,-0.009020100347697735,0.022017091512680054,-0.036328546702861786,0.06923696398735046,-0.029222821816802025,0.009760530665516853,-0.016110453754663467,0.004004332236945629,-0.0035269493237137794,0.017557300627231598,0.03609577938914299,-0.03445453569293022,-0.04291559010744095,0.06146761775016785,-0.008445133455097675,-0.06714671105146408,0.013629498891532421,-0.03680003434419632,-0.014239885844290257,0.048789024353027344,0.02658281847834587,0.06366227567195892,-0.06229923292994499,0.06043394282460213,-0.0002205630298703909,-0.018297139555215836,-0.052384622395038605,0.026830080896615982,0.02385447733104229,0.03812342882156372,0.03711790591478348,0.04954403638839722,-0.004434449598193169,0.054395195096731186,-0.0342923104763031,-0.024136820808053017,-0.07302916049957275,-0.023447973653674126,0.04184607416391373,-0.034426890313625336,-0.0240809116512537,-0.02923085354268551,0.02051074430346489,-0.005221789237111807,0.026091555133461952,-0.014228548854589462,0.016098804771900177,-0.06098787486553192,-0.024772509932518005,0.016071656718850136,-0.03611336648464203,-0.010656054131686687,-0.013797126710414886,0.00839879922568798,0.034073855727910995,0.026251159608364105,0.02286984771490097,0.012283073738217354,0.01942630484700203,-0.00513447355479002,0.009039903059601784,-0.07468853145837784,-0.00111748231574893,0.014678246341645718,0.02257721498608589,0.01892642304301262,0.0402548648416996,0.040405355393886566,-0.035102128982543945,0.006168979220092297,0.015708277001976967,0.05135241150856018,-0.004077529534697533,-0.051823511719703674,0.0025269147008657455,0.0034768932964652777,0.030124042183160782,0.003058242378756404,0.017420683056116104,0.016293782740831375,-0.04779670387506485,0.024109605699777603,0.02011226676404476,0.013700288720428944,0.05122324079275131,-0.02579524554312229,-0.008818818256258965,-0.004101667553186417,0.011849449947476387,-0.05332767218351364,-0.08696981519460678,0.02802220545709133,0.014416974037885666,-0.005593659821897745,0.0007794291595928371,-0.03647484630346298,-0.023625897243618965,0.001560873817652464,0.08739525824785233,-0.01879248023033142,0.01224487740546465,-0.06376644223928452,-0.01768379658460617,0.04845010116696358,-0.022409018129110336,-0.00034646326093934476,0.060021210461854935,0.054952941834926605,0.0361909456551075,0.010576723143458366,-0.07207644730806351,0.05101906135678291,0.031805284321308136,0.02449290081858635,0.035033077001571655,0.03969568386673927,-0.004514222498983145,0.025683226063847542,-0.04885047674179077,0.005910991691052914,0.048469021916389465,-0.05436752364039421,-0.014656046405434608,-0.03563806787133217,0.029279740527272224,-0.046178996562957764,0.027939457446336746,-0.030695388093590736,0.003941875882446766,-0.0678417757153511,-0.0051096463575959206,0.006725815124809742,0.03678485006093979,-0.001955619780346751,0.0033828665036708117,0.029326684772968292,0.04723309352993965,0.036740899085998535,-0.0119301937520504,-0.024858571588993073,-0.017119700089097023,-0.029008671641349792,-0.005741729401051998,-0.04933546110987663,0.07945676147937775,0.0673590898513794,0.03344273939728737,-0.01681247353553772,0.006609690375626087,0.034088168293237686,-0.017759721726179123,-0.004220759030431509,-0.07252823561429977,-0.016490209847688675,-0.024354413151741028,0.0046264310367405415,0.009140395559370518,-0.04243961721658707,0.07677888125181198,-0.04304289072751999,0.016414914280176163,-0.05322198569774628,-0.019220078364014626,0.04474743455648422,0.047544579952955246,0.004982035141438246,-0.029593516141176224,0.0737636610865593,0.03427372872829437,0.014650932513177395,0.04745006188750267,0.04976975917816162,0.0050933170132339,0.03822726756334305,0.035424165427684784,0.027542807161808014,-0.006963242776691914,0.03577104210853577,0.05495674908161163,0.03155691921710968,0.021315891295671463,-0.002423554426059127,-0.006061068270355463,0.0010410749819129705,0.010363942012190819,0.04277802258729935,-0.020921874791383743,-0.015321549959480762,-0.010419086553156376,-0.020910250023007393,0.009700536727905273,0.0029378526378422976,0.03967596963047981,-0.009937149472534657,-0.025290610268712044,0.003762938315048814,0.01997114159166813,-0.03531401976943016,-0.04338916391134262,0.00993556808680296,-0.02392461895942688,0.00667188735678792,-0.004126898944377899,0.09014179557561874,-0.005562598817050457,-0.02042410895228386,-0.007295558229088783,0.012253213673830032,0.04044502601027489,-0.05013547092676163,0.016967833042144775,0.02636314369738102,-0.00467734644189477,0.02320229634642601,0.045528706163167953,0.005614330060780048,0.026897631585597992,-0.0153029914945364,0.07803554832935333,0.04288887605071068,-0.021713169291615486,-0.0020273851696401834,-0.015731889754533768,-0.05012185126543045,-0.010950284078717232,0.014405304566025734,0.015007498674094677,-0.010041954927146435,0.011379634030163288,-0.01880546659231186,-0.011863509193062782,-0.07785399258136749,-0.011838897131383419,0.0064157117158174515,0.015108834020793438,0.015151891857385635,0.04261881858110428,0.0062557184137403965,0.0633876696228981,0.013386687263846397,0.007429216057062149,-0.015053759329020977,-0.006645832676440477,-0.11042995750904083,0.014233360067009926,0.046096861362457275,0.02291087433695793,0.021687516942620277,-0.018235944211483,-0.05071898549795151,-0.027145151048898697,0.01702164299786091,-0.07814949750900269,0.014165842905640602,0.028982015326619148,0.03511635214090347,0.017531802877783775,0.02244686894118786,-0.011309063993394375,-0.013655425980687141,-0.019886145368218422,-0.06280577927827835,-0.03318677097558975,-0.01067385170608759,0.024197116494178772,0.009247849695384502,0.0038744108751416206,0.06346152722835541,0.03432885557413101,-0.016753077507019043,-0.015927474945783615,-0.0172744058072567,-0.010337716899812222,0.0466628298163414,-0.01464747916907072,-0.047998033463954926,0.023267587646842003,0.04871051385998726,0.020855547860264778,0.01217640284448862,-0.06882007420063019,-0.05680868774652481,-0.006467990577220917,0.00868658535182476,0.05546044558286667,0.019510112702846527,-0.0021160338073968887,0.0814322829246521,-0.029031896963715553,-0.00810688640922308,0.002817451022565365,-0.0030034163501113653,-0.00727807404473424,-0.03989069163799286,-0.010867196135222912,0.010504801757633686,-0.028076637536287308,-0.03949442133307457,0.03757201135158539,-0.016156062483787537,0.005341405514627695,-0.016244851052761078,-0.013925774954259396,-0.06718980520963669,0.0035183357540518045,-0.01419044192880392,-0.029979435727000237,-0.06395328044891357,-0.044945523142814636,0.010775274597108364,-0.00961159635335207,-0.07899212092161179,0.04669300094246864,-0.0003654972242657095,0.007375823799520731,-0.011906741186976433,-0.023189272731542587,-0.02081092819571495,0.02957070618867874,0.0178191177546978,0.022037247195839882,-0.005617343354970217,0.017748462036252022,-0.03635628893971443,-0.023690205067396164,-0.015273700468242168,-0.017560811713337898,-0.058490898460149765,-0.024981843307614326,0.011431778781116009,-0.024344298988580704,0.005452292505651712,-0.03267230838537216,0.0071395933628082275,-0.016271650791168213,-0.010956622660160065,0.024128219112753868,-0.0031137431506067514,-0.026514919474720955,-0.05908716842532158,0.015577062964439392,0.005487393122166395,0.06336269527673721,0.010827241465449333,-0.05992242321372032,0.02741367742419243,-0.0148362061008811,0.06923627108335495,0.04373013600707054,-0.02883591502904892,0.007316325791180134,0.004423845559358597,0.018596068024635315,0.01996862143278122,0.07145779579877853,0.011257103644311428,0.019354548305273056,0.009160969406366348,0.011341850273311138,0.04062382131814957,0.016471775248646736,-0.017354866489768028,-0.032598599791526794,-0.027639612555503845,0.0007122659590095282,0.00921089667826891,0.03939058631658554,0.00019166899437550455,-0.012660004198551178,0.009752428159117699,0.021252471953630447,-0.0382314994931221,0.01949128694832325,-0.03222491219639778,-0.00262710964307189,0.018074259161949158,0.013597910292446613,0.002213440602645278,-0.02854408137500286,-0.034770604223012924,0.024058997631072998,0.03342320770025253,0.0224052295088768,-0.027775483205914497,-0.0024688139092177153,-0.03322052210569382,-0.09726016968488693,-0.0013505487004294991,0.012218981981277466,0.014259740710258484,0.010002974420785904,-0.005021636374294758,0.06611836701631546,-0.052527785301208496,0.03626411780714989,-0.00878002867102623,0.012773839756846428,0.03487618640065193,-0.03245098143815994,0.013359547592699528,-0.02119695395231247,-0.04919726401567459,0.029613075777888298,-0.041088711470365524]],"36d72dfd0ac3db00200c681b07e2a9ba":[0.9999530050969825,[0.02159648947417736,0.0229920893907547,-0.041616085916757584,0.013269290328025818,0.07176696509122849,0.0449533611536026,0.03493776544928551,0.03176805004477501,-0.013591443188488483,0.0005467800656333566,-0.03133688122034073,0.022483177483081818,0.02517188899219036,0.02349797450006008,-0.004707902669906616,-0.022708453238010406,0.015531723387539387,0.02590658888220787,-0.02668624371290207,-0.00801234319806099,-0.035708289593458176,-0.029063118621706963,-0.0237144622951746,0.0019931900314986706,0.011064770631492138,-0.1102638691663742,0.026415115222334862,-0.0029192788060754538,0.016208717599511147,-0.042281173169612885,0.00777979614213109,0.06183807551860809,0.028797565028071404,-0.05786348506808281,0.0013270365307107568,-0.035549670457839966,0.0015627036336809397,0.04147615283727646,0.01576845906674862,-0.03377428650856018,-0.05365215614438057,-0.04931094869971275,-0.01861966773867607,0.06521331518888474,-0.005743000656366348,-0.011314214207231998,-0.06244277581572533,-0.014253653585910797,-0.0034882656764239073,0.03035852499306202,0.07389090210199356,-0.009826152585446835,-0.015175187960267067,0.014536946080625057,0.006299200467765331,-0.04586353152990341,-0.05014849826693535,-0.06640002876520157,0.04768189415335655,0.0021722004748880863,-0.030585115775465965,-0.007248878013342619,-0.003867371240630746,0.006888816598802805,-0.02441941574215889,-0.015024487860500813,-0.004658189136534929,-0.06060077250003815,-0.027659688144922256,0.03495828062295914,-0.02764599584043026,0.03596145659685135,-0.07574106752872467,-0.01849278248846531,-0.03155443072319031,0.06647639721632004,-0.03367806226015091,-0.04440062865614891,-0.038227032870054245,0.03537123277783394,-0.00039819738594815135,0.03704749047756195,0.03140220046043396,0.012612356804311275,0.002953260438516736,-0.022894693538546562,-0.0015455526299774647,-0.032315030694007874,-0.06688772886991501,-0.05697883665561676,0.05900118872523308,0.007073708809912205,-0.0007165325223468244,0.030221346765756607,0.1119220033288002,-0.023500334471464157,-0.07298261672258377,-0.12002116441726685,0.029647953808307648,0.02748097851872444,0.00031447154469788074,0.013572806492447853,0.0012333522317931056,-0.005821872036904097,0.008445185609161854,-0.0230900589376688,-0.0036988435313105583,-0.06425226479768753,-0.06533179432153702,0.032312363386154175,0.0005012470064684749,-0.0060517932288348675,0.03695746138691902,-0.02912256494164467,-0.008482424542307854,-0.023557167500257492,0.029786905273795128,-0.007446605712175369,-0.030002588406205177,0.025510137900710106,0.02543768472969532,0.012011322192847729,-0.0264933779835701,0.05632913112640381,0.05185525491833687,0.006921292282640934,0.034604404121637344,0.022506479173898697,-0.026976723223924637,0.004982699640095234,-0.013317142613232136,-0.03263097628951073,-0.032823286950588226,0.020709244534373283,-0.012271244078874588,0.01998223178088665,0.024554012343287468,0.004830467980355024,0.02327735163271427,0.015206562355160713,0.01425206195563078,0.012959708459675312,-0.06954951584339142,0.05417612940073013,0.0020287283696234226,-0.008008274249732494,0.03785571828484535,0.04825948551297188,-0.04355296865105629,0.01632111333310604,-0.021281959488987923,0.020023616030812263,-0.019695451483130455,0.01606566645205021,-0.035638466477394104,-0.054187241941690445,0.012749714776873589,-0.04695890098810196,-0.014760232530534267,0.0181046724319458,0.04167286306619644,-0.0022140336222946644,0.029732460156083107,0.10265446454286575,0.003999555017799139,-0.04027153551578522,-0.03312339261174202,-0.03695719316601753,-0.004302376415580511,0.030261466279625893,-0.04337700828909874,-0.050445083528757095,-0.11986874043941498,0.0017973530339077115,-0.044466372579336166,0.020086845383048058,0.01715405285358429,-0.009021826088428497,-0.01847962662577629,-0.01568705216050148,0.10196255147457123,0.020548604428768158,-0.009701593779027462,-0.05241227149963379,-0.0016615325585007668,0.015913331881165504,-0.017047179862856865,-0.02124319039285183,0.008146018721163273,0.06138581410050392,-0.045561689883470535,-0.002897566184401512,-0.011892575770616531,0.05735118314623833,-0.01710529811680317,0.044137921184301376,0.04588046297430992,-0.08654429763555527,-0.10884018242359161,-0.014074104838073254,0.061038050800561905,0.016777293756604195,0.018080033361911774,-0.0018395759398117661,-0.00633790111169219,0.02990727871656418,0.007360263727605343,-0.025497442111372948,0.008570007979869843,-0.019167587161064148,-0.032084785401821136,0.00962259154766798,0.0189899280667305,-0.0365147739648819,-0.009478367865085602,-0.03169431909918785,0.1014472022652626,0.05018337443470955,0.08409898728132248,-0.036757681518793106,-0.02242712676525116,-0.03747575357556343,-0.007243646774441004,-0.012609423138201237,-0.0004538854118436575,0.03814037889242172,-0.0733177661895752,0.02378053404390812,-0.015232137404382229,-0.040486305952072144,0.02860252372920513,0.013339503668248653,-0.021250687539577484,0.0338275283575058,-0.0416325181722641,0.03250105306506157,0.05667247623205185,-0.04267199710011482,-0.06216195225715637,-0.013329451903700829,-0.014820341020822525,0.04763676971197128,0.006103598512709141,0.043246205896139145,0.012526481412351131,-0.04409583657979965,0.0030363283585757017,0.026752104982733727,0.01377613004297018,-0.04309026896953583,-0.017819467931985855,-0.01679091341793537,0.0030936971306800842,-0.02962474338710308,-0.028119830414652824,0.016749318689107895,0.018052808940410614,-0.020026933401823044,0.047513701021671295,-0.00005687341035809368,0.025262977927923203,-0.003295289119705558,-0.009172291494905949,-0.047741618007421494,-0.05240246653556824,-0.008088037371635437,-0.02379259467124939,-0.03037305176258087,0.018700705841183662,0.0021362006664276123,0.05433689057826996,-0.0491131991147995,-0.0662873163819313,0.011051631532609463,-0.05905482545495033,0.024201026186347008,-0.03177877888083458,0.0016206856817007065,-0.036805372685194016,-0.08860092610120773,0.02436348982155323,0.0001720081636449322,-0.0021457658149302006,-0.0024473750963807106,-0.0022836385760456324,-0.01770355924963951,-0.016425281763076782,-0.025932298973202705,0.029327698051929474,0.00456608459353447,0.02674112468957901,0.07245007902383804,-0.06535466760396957,-0.03272930160164833,0.012707889080047607,0.005948979873210192,0.06464926898479462,0.025326671078801155,-0.0026308370288461447,-0.04088645055890083,0.04425976425409317,0.027303559705615044,-0.04146360233426094,0.08525554835796356,-0.02764967828989029,0.017246827483177185,-0.0884576141834259,-0.04413376748561859,-0.05609317496418953,-0.05463900789618492,0.013078234158456326,0.029117776080965996,-0.021636053919792175,-0.035844407975673676,0.0032895917538553476,-0.036665719002485275,-0.1697683036327362,-0.004670251160860062,-0.022864528000354767,-0.007680076640099287,0.025211339816451073,0.035460785031318665,-0.02477099746465683,0.007450590841472149,0.000826195115223527,-0.02696809358894825,0.020433558151125908,-0.014622571878135204,0.028677895665168762,-0.057240989059209824,0.02374405786395073,-0.007531993091106415,0.039261579513549805,0.015073113143444061,0.017039256170392036,0.07945461571216583,0.03253627568483353,-0.014152409508824348,0.030604476109147072,0.05333191528916359,0.01629282534122467,-0.02680155448615551,0.03566896915435791,-0.03655624762177467,-0.027767755091190338,-0.03388546034693718,0.07664050906896591,-0.018594300374388695,0.016156861558556557,0.0281036589294672,0.03821418061852455,0.011903663165867329,-0.03648191690444946,0.007057156879454851,0.022566840052604675,0.005432841833680868,0.05268177390098572,0.011743570677936077,0.0273177158087492,-0.029521748423576355,0.025120632722973824,0.018381858244538307,0.01572689600288868,0.051593393087387085,0.014643731527030468,-0.015037588775157928,-0.04728836566209793,0.05910738185048103,-0.025741159915924072,-0.01798594370484352,-0.03423692658543587,-0.009449935518205166,0.03220301494002342,0.027276620268821716,0.0006015949766151607,-0.03512480854988098,-0.04293769225478172,0.04291790351271629,0.003538033924996853,-0.037912242114543915,0.0019200305687263608,-0.009701534174382687,0.018334995955228806,0.04777763783931732,0.013380883261561394,0.0651201605796814,-0.050867047160863876,0.030287861824035645,0.034938208758831024,-0.04422543942928314,-0.09204119443893433,0.01901056058704853,0.04641718789935112,0.03298093378543854,-0.006581831723451614,0.00896831601858139,-0.033414583653211594,-0.00047595513751730323,-0.0005050107720308006,-0.0012536185095086694,-0.04222530126571655,-0.017138853669166565,0.017924092710018158,-0.04787248745560646,-0.034305356442928314,-0.028617827221751213,0.023586979135870934,0.008998842909932137,0.01805209554731846,0.010305359959602356,0.006433553993701935,-0.06384705752134323,-0.0006604444934055209,0.0007798795704729855,-0.010078870691359043,-0.002428897423669696,-0.012966405600309372,-0.00927979126572609,-0.006300259847193956,0.005637637805193663,0.020621148869395256,0.0008349317358806729,-0.0024857590906322002,0.012287397868931293,-0.007932666689157486,-0.1003543958067894,-0.016753211617469788,-0.010581248439848423,0.02942742593586445,-0.022076768800616264,0.05934325233101845,0.024824053049087524,-0.03479026257991791,0.033060867339372635,-0.037083085626363754,0.06582242250442505,0.004947446286678314,-0.06988129764795303,-0.023868035525083542,0.015839701518416405,0.04660281538963318,0.01549424510449171,0.050298240035772324,0.01029478944838047,-0.049226805567741394,0.03165822476148605,-0.017076099291443825,0.023550841957330704,0.0328085832297802,-0.03857412561774254,-0.0039705075323581696,-0.020410357043147087,-0.007782381027936935,-0.06967911124229431,-0.11012198030948639,0.04719030484557152,0.025461049750447273,0.017092911526560783,-0.010897924192249775,-0.020715268328785896,-0.006661670282483101,-0.010074377991259098,0.04229263961315155,-0.03163665160536766,-0.012137181125581264,-0.06564055383205414,-0.024540962651371956,0.03626463562250137,-0.010581071488559246,0.02076081372797489,0.07359180599451065,0.0762239545583725,0.06292687356472015,0.016669223085045815,-0.06146760657429695,0.023553572595119476,0.03472687676548958,0.01747899502515793,0.052265651524066925,0.033465899527072906,-0.012088816612958908,0.05638263747096062,0.01800082065165043,0.011074929498136044,0.06109753996133804,-0.04042959585785866,-0.04231783002614975,-0.0027800961397588253,-0.0025256334338337183,-0.05020091310143471,0.012260012328624725,-0.03406021371483803,-0.008890990167856216,-0.04932263121008873,-0.013540494255721569,-0.0034997311886399984,0.01707787811756134,0.006462769582867622,-0.006412856746464968,0.024968842044472694,0.05314623937010765,0.040271565318107605,-0.012860847637057304,-0.023117853328585625,-0.002862405963242054,-0.017602676525712013,-0.016453752294182777,-0.010772684589028358,0.025518963113427162,0.035559121519327164,0.07765799760818481,-0.02308453433215618,0.01253129169344902,0.016080433502793312,-0.006027486175298691,-0.015136833302676678,-0.047337789088487625,-0.051409076899290085,-0.029567688703536987,0.017037879675626755,-0.002501100767403841,-0.03246372938156128,0.037895429879426956,-0.006133510731160641,-0.03696804493665695,-0.02132047526538372,0.014586297795176506,0.05629010871052742,0.028492547571659088,0.03361305594444275,-0.04758909344673157,0.07855913788080215,0.03617139533162117,0.015936976298689842,0.026879191398620605,0.04473281651735306,0.01990400440990925,0.011203308589756489,0.050683651119470596,0.03693316504359245,-0.029175205156207085,0.01975030079483986,0.02359175682067871,0.01381462998688221,0.0518270805478096,0.021204184740781784,-0.003220462938770652,0.0014407372800633311,-0.0013487512478604913,0.06557751446962357,-0.03565075621008873,-0.021620163694024086,-0.0010015461593866348,0.01027827151119709,-0.007068315986543894,-0.01857837848365307,-0.027096133679151535,-0.0421379990875721,-0.03521770238876343,-0.014402708038687706,0.05742136016488075,-0.039182398468256,-0.01763627491891384,-0.015148039907217026,0.009823041036725044,-0.029661081731319427,-0.007176610175520182,0.04383986070752144,-0.006281150970607996,-0.009729748591780663,-0.003073312807828188,-0.025053393095731735,0.04232440143823624,-0.025127463042736053,0.004162288736552,0.02651035599410534,-0.006798979826271534,0.024533696472644806,0.03647064045071602,0.0029011296574026346,-0.0013301001163199544,-0.0021302492823451757,0.07702533900737762,0.05123857781291008,-0.041042108088731766,-0.01336425356566906,-0.03489263355731964,-0.05340751260519028,-0.0013984142569825053,0.005363866221159697,-0.007531287614256144,-0.036556411534547806,0.009397795423865318,-0.005224281921982765,0.014720302075147629,-0.04672365263104439,-0.03266769275069237,0.03239307925105095,0.020872851833701134,0.0025605391710996628,0.04422350600361824,-0.0357055738568306,0.07672198861837387,-0.0003168547118548304,-0.01871446892619133,-0.044291164726018906,0.002740289317443967,-0.0691852867603302,0.016940243542194366,0.059442851692438126,0.02562139555811882,0.03415661305189133,-0.028349652886390686,-0.029870932921767235,-0.03031858056783676,0.022131387144327164,-0.05012153461575508,0.028877798467874527,0.011218828149139881,0.04538186267018318,0.018448058515787125,0.007017599884420633,-0.003188390750437975,0.024532299488782883,-0.01766166277229786,-0.06405454128980637,0.005074500106275082,-0.026013055816292763,0.07268300652503967,0.005991441663354635,-0.0055996207520365715,0.020054234191775322,0.06298104673624039,-0.04440587759017944,-0.004252707585692406,-0.07023171335458755,0.00934391189366579,0.037629224359989166,-0.011895844712853432,-0.05251746624708176,0.02378460206091404,0.03112042136490345,0.022914523258805275,0.02427649311721325,-0.04686618223786354,-0.03918502852320671,-0.01583387516438961,-0.013114137575030327,0.04332729056477547,0.04349178820848465,-0.011474926955997944,0.060119617730379105,-0.019686773419380188,0.0008661589818075299,-0.03644704818725586,-0.02328874170780182,0.00009147172386292368,-0.043885864317417145,-0.008234469220042229,0.0008769080741330981,-0.012837780639529228,-0.046448901295661926,0.027722293511033058,-0.007957248017191887,0.005704315844923258,0.001716318423859775,-0.028399838134646416,-0.06632625311613083,0.012276286259293556,-0.009317274205386639,-0.010159510187804699,-0.041465435177087784,-0.014482686296105385,0.022877315059304237,-0.0038725961931049824,-0.04212215915322304,0.01965315081179142,-0.007974653504788876,0.01154793705791235,-0.009392640553414822,-0.049827929586172104,-0.0029161102138459682,0.04790249094367027,-0.00960131548345089,0.030882244929671288,0.003255577990785241,-0.0035378073807805777,-0.04131444916129112,-0.025872593745589256,-0.031883083283901215,-0.0413162000477314,-0.06309972703456879,-0.035206109285354614,0.008861036039888859,-0.00844272505491972,0.0003965138166677207,-0.028394557535648346,0.01592673920094967,0.004235144704580307,-0.04611722752451897,0.01848457381129265,0.0174539964646101,-0.03796781972050667,-0.05118155851960182,0.014642794616520405,-0.01345193199813366,0.04925563931465149,0.000033211512345587835,-0.0599658340215683,0.019109178334474564,-0.030856948345899582,0.05420244485139847,0.05938386544585228,-0.00021496393310371786,0.014463046565651894,0.017612284049391747,0.003987591248005629,0.03550228476524353,0.0685603991150856,0.03242797777056694,0.022613907232880592,0.01786114275455475,0.030207989737391472,0.05644093081355095,-0.0033931524958461523,-0.0041024526581168175,-0.035046208649873734,-0.006799150723963976,-0.033285077661275864,0.016472384333610535,-0.03145718574523926,-0.019861318171024323,-0.025942858308553696,0.05006659775972366,-0.009391003288328648,-0.05107538774609566,0.005434878170490265,-0.011570696718990803,-0.03747308999300003,-0.015372145920991898,0.015234878286719322,-0.010245000012218952,-0.05673719197511673,-0.045677002519369125,0.021429184824228287,0.028864458203315735,-0.01007587369531393,0.026609299704432487,-0.029281005263328552,-0.009051640518009663,-0.10616261512041092,0.010411575436592102,0.027508916333317757,0.027924278751015663,0.033604416996240616,0.020114857703447342,0.05244980752468109,-0.042169902473688126,0.035331252962350845,0.024304449558258057,-0.0016353052342310548,0.05281725153326988,-0.020580101758241653,-0.022843921557068825,-0.05923844873905182,-0.03308677300810814,0.07228852063417435,-0.0014207498170435429]]}}},"searchableProperties":["id","title","path","content","embedding","embeddingModel","created_at","ctime","mtime","tags","extension"],"searchablePropertiesWithTypes":{"id":"string","title":"string","path":"string","content":"string","embedding":"vector[768]","embeddingModel":"string","created_at":"number","ctime":"number","mtime":"number","tags":"string[]","extension":"string"},"frequencies":{"id":{"1":{"1a1aad29fc9ba87a945b88a84cb614fb":1},"2":{"535ea2cd5e229cb4a3945233c4edbbbd":1},"3":{"36d72dfd0ac3db00200c681b07e2a9ba":1}},"title":{"1":{"timeline_entry":1},"2":{"timeline":1},"3":{"readme":1}},"path":{"1":{"templates":0.3333333333333333,"timeline_entry":0.3333333333333333,"md":0.3333333333333333},"2":{"timeline":0.5,"md":0.5},"3":{"readme":0.5,"md":0.5}},"content":{"1":{"20":0.02857142857142857,"58":0.02857142857142857,"2025":0.02857142857142857,"note":0.02857142857142857,"title":0.02857142857142857,"timeline_entry":0.02857142857142857,"metadata":0.02857142857142857,"date":0.02857142857142857,"null":0.02857142857142857,"time":0.02857142857142857,"type":0.02857142857142857,"tags":0.02857142857142857,"timeline":0.02857142857142857,"created":0.02857142857142857,"06":0.02857142857142857,"00":0.02857142857142857,"07":0.02857142857142857,"modified":0.02857142857142857,"block":0.02857142857142857,"content":0.02857142857142857,"---":0.02857142857142857,"event":0.02857142857142857,"details":0.02857142857142857,"-":0.02857142857142857,"location":0.02857142857142857,"category":0.02857142857142857,"description":0.02857142857142857,"related":0.02857142857142857,"items":0.02857142857142857,"related_items":0.02857142857142857,"sovereign":0.02857142857142857,"data":0.02857142857142857,"links":0.02857142857142857,"sovereign_data_links":0.02857142857142857,"notes":0.02857142857142857},"2":{"10":0.029411764705882353,"20":0.029411764705882353,"23":0.029411764705882353,"58":0.029411764705882353,"2025":0.029411764705882353,"note":0.029411764705882353,"title":0.029411764705882353,"timeline":0.029411764705882353,"metadata":0.029411764705882353,"created":0.029411764705882353,"06":0.029411764705882353,"00":0.029411764705882353,"modified":0.029411764705882353,"block":0.029411764705882353,"content":0.029411764705882353,"sovereign":0.029411764705882353,"dataview":0.029411764705882353,"table":0.029411764705882353,"date":0.029411764705882353,"time":0.029411764705882353,"category":0.029411764705882353,"from":0.029411764705882353,"timeline_data":0.029411764705882353,"where":0.029411764705882353,"type":0.029411764705882353,"timeline_entry":0.029411764705882353,"sort":0.029411764705882353,"desc":0.029411764705882353,"view":0.029411764705882353,"color":0.029411764705882353,"recent":0.029411764705882353,"entries":0.029411764705882353,"list":0.029411764705882353,"limit":0.029411764705882353},"3":{"1":0.01098901098901099,"2":0.01098901098901099,"3":0.01098901098901099,"20":0.01098901098901099,"35":0.01098901098901099,"58":0.01098901098901099,"2025":0.01098901098901099,"note":0.01098901098901099,"title":0.01098901098901099,"readme":0.01098901098901099,"metadata":0.01098901098901099,"created":0.01098901098901099,"06":0.01098901098901099,"00":0.01098901098901099,"modified":0.01098901098901099,"block":0.01098901098901099,"content":0.01098901098901099,"sovereign":0.01098901098901099,"timeline":0.01098901098901099,"integration":0.01098901098901099,"this":0.01098901098901099,"is":0.01098901098901099,"an":0.01098901098901099,"obsidian-based":0.01098901098901099,"interface":0.01098901098901099,"integrated":0.01098901098901099,"with":0.01098901098901099,"the":0.01098901098901099,"drive":0.01098901098901099,"system":0.01098901098901099,"setup":0.01098901098901099,"instructions":0.01098901098901099,"open":0.01098901098901099,"folder":0.01098901098901099,"as":0.01098901098901099,"obsidian":0.01098901098901099,"vault":0.01098901098901099,"install":0.01098901098901099,"required":0.01098901098901099,"community":0.01098901098901099,"plugins":0.01098901098901099,"-":0.01098901098901099,"dataview":0.01098901098901099,"templater":0.01098901098901099,"usage":0.01098901098901099,"creating":0.01098901098901099,"entries":0.01098901098901099,"use":0.01098901098901099,"template":0.01098901098901099,"in":0.01098901098901099,"templates":0.01098901098901099,"timeline_entry":0.01098901098901099,"md":0.01098901098901099,"for":0.01098901098901099,"new":0.01098901098901099,"store":0.01098901098901099,"all":0.01098901098901099,"timeline_data":0.01098901098901099,"directory":0.01098901098901099,"make":0.01098901098901099,"sure":0.01098901098901099,"to":0.01098901098901099,"fill":0.01098901098901099,"out":0.01098901098901099,"fields":0.01098901098901099,"frontmatter":0.01098901098901099,"viewing":0.01098901098901099,"main":0.01098901098901099,"view":0.01098901098901099,"tables":0.01098901098901099,"and":0.01098901098901099,"visualization":0.01098901098901099,"explore":0.01098901098901099,"are":0.01098901098901099,"automatically":0.01098901098901099,"sorted":0.01098901098901099,"by":0.01098901098901099,"date":0.01098901098901099,"time":0.01098901098901099,"data":0.01098901098901099,"maintain":0.01098901098901099,"links":0.01098901098901099,"section":0.01098901098901099,"reference":0.01098901098901099,"related":0.01098901098901099,"files":0.01098901098901099,"stored":0.01098901098901099,"structure":0.01098901098901099,"configuration":0.01098901098901099,"entry":0.01098901098901099,"attachments":0.01098901098901099}},"embeddingModel":{"1":{"text-embedding-004":1},"2":{"text-embedding-004":1},"3":{"text-embedding-004":1}},"tags":{},"extension":{"1":{"md":1},"2":{"md":1},"3":{"md":1}}},"tokenOccurrences":{"id":{"1a1aad29fc9ba87a945b88a84cb614fb":1,"535ea2cd5e229cb4a3945233c4edbbbd":1,"36d72dfd0ac3db00200c681b07e2a9ba":1},"title":{"timeline_entry":1,"timeline":1,"readme":1},"path":{"templates":1,"timeline_entry":1,"md":3,"timeline":1,"readme":1},"content":{"1":1,"2":1,"3":1,"10":1,"20":3,"23":1,"35":1,"58":3,"2025":3,"note":3,"title":3,"timeline_entry":3,"metadata":3,"date":3,"null":1,"time":3,"type":2,"tags":1,"timeline":3,"created":3,"06":3,"00":3,"07":1,"modified":3,"block":3,"content":3,"---":1,"event":1,"details":1,"-":2,"location":1,"category":2,"description":1,"related":2,"items":1,"related_items":1,"sovereign":3,"data":2,"links":2,"sovereign_data_links":1,"notes":1,"dataview":2,"table":1,"from":1,"timeline_data":2,"where":1,"sort":1,"desc":1,"view":2,"color":1,"recent":1,"entries":2,"list":1,"limit":1,"readme":1,"integration":1,"this":1,"is":1,"an":1,"obsidian-based":1,"interface":1,"integrated":1,"with":1,"the":1,"drive":1,"system":1,"setup":1,"instructions":1,"open":1,"folder":1,"as":1,"obsidian":1,"vault":1,"install":1,"required":1,"community":1,"plugins":1,"templater":1,"usage":1,"creating":1,"use":1,"template":1,"in":1,"templates":1,"md":1,"for":1,"new":1,"store":1,"all":1,"directory":1,"make":1,"sure":1,"to":1,"fill":1,"out":1,"fields":1,"frontmatter":1,"viewing":1,"main":1,"tables":1,"and":1,"visualization":1,"explore":1,"are":1,"automatically":1,"sorted":1,"by":1,"maintain":1,"section":1,"reference":1,"files":1,"stored":1,"structure":1,"configuration":1,"entry":1,"attachments":1},"embeddingModel":{"text-embedding-004":3},"tags":{},"extension":{"md":3}},"avgFieldLength":{"id":1,"title":1,"path":2.3333333333333335,"content":53.333333333333336,"embeddingModel":1,"tags":0,"extension":1},"fieldLengths":{"id":{"1":1,"2":1,"3":1},"title":{"1":1,"2":1,"3":1},"path":{"1":3,"2":2,"3":2},"content":{"1":35,"2":34,"3":91},"embeddingModel":{"1":1,"2":1,"3":1},"tags":{},"extension":{"1":1,"2":1,"3":1}}},"docs":{"docs":{"1":{"title":"timeline_entry","path":"templates/timeline_entry.md","embeddingModel":"text-embedding-004","ctime":1750345087291,"mtime":1750345087291,"tags":[],"extension":"md","metadata":{"date":{"{ date }":null},"time":{"{ time }":null},"type":"timeline_entry","tags":"timeline","created":"2025/06/20 00:58:07","modified":"2025/06/20 00:58:07"},"id":"1a1aad29fc9ba87a945b88a84cb614fb","content":"\n\nNOTE TITLE: [[timeline_entry]]\n\nMETADATA:{\"date\":{\"{ date }\":null},\"time\":{\"{ time }\":null},\"type\":\"timeline_entry\",\"tags\":\"timeline\",\"created\":\"2025/06/20 00:58:07\",\"modified\":\"2025/06/20 00:58:07\"}\n\nNOTE BLOCK CONTENT:\n\n---\ndate: {{date}}\ntime: {{time}}\ntype: timeline_entry\ntags: timeline\n---\n\n# {{title}}\n\n## Event Details\n- **Time**: {{time}}\n- **Location**: {{location}}\n- **Category**: {{category}}\n\n## Description\n{{description}}\n\n## Related Items\n- {{related_items}}\n\n## Sovereign Data Links\n- [[{{sovereign_data_links}}]]\n\n## Notes\n{{notes}}","embedding":[0.023413142,0.046319917,-0.0606574,-0.019774435,0.024650935,0.042893913,0.02328348,0.02277428,0.03224017,0.017258776,-0.017989092,0.05443857,0.06653042,0.026962185,-0.013540666,0.0030624054,0.013851217,0.009731827,-0.07206914,-0.02120641,-0.05150821,-0.033790275,0.019392908,-0.024223372,0.03437562,-0.09974063,0.00078551937,-0.004091331,-0.0057640085,-0.020174736,-0.025957938,0.055534795,0.02818899,-0.036281727,0.040858477,-0.005715601,0.027138395,-0.0037290426,0.03883968,-0.009283786,-0.054445356,-0.03210548,0.013289451,0.023945726,-0.045750324,-0.03914585,-0.043539822,-0.0046199095,-0.018005658,0.050076496,0.04578529,0.006311291,-0.026363028,-0.01036049,-0.028359719,-0.063591994,-0.05483798,-0.07588492,0.060386498,0.0011379992,-0.004641743,-0.0071706846,-0.0377586,-0.025409434,-0.014329004,-0.001477711,0.015666084,0.006842125,-0.06619488,0.014524168,-0.03385396,0.06990651,-0.053042565,-0.020170992,0.025624953,0.006668793,-0.001698752,0.007990785,0.044396296,0.057802416,-0.017946867,0.01576874,0.028115122,0.042433027,0.020089634,0.009274396,0.019761309,-0.03999632,-0.084625185,-0.056784812,0.041182544,0.0440681,-0.02204001,0.026306763,0.07964883,-0.0571085,-0.052129652,-0.124280274,0.08876179,0.07638161,-0.021987196,-0.007918054,0.035399627,-0.0038959738,0.044884846,-0.029000014,-0.010203709,-0.047232002,-0.049468383,0.029849963,0.0043137427,-0.004895387,0.0034949388,-0.008273946,-0.038900908,0.013773373,0.01510865,0.0067181117,-0.04632457,-0.030325204,0.058659058,0.00033283827,-0.043191142,0.053732306,0.05521434,0.0036200774,-0.029457584,-0.016307969,-0.04413297,-0.0063061332,0.029792791,-0.037369173,0.015285328,0.028228667,-0.005795547,-0.03229396,0.031442367,0.008474976,0.021137005,-0.01524107,0.01177326,0.0136828,-0.075139575,0.053471792,-0.004475451,-0.01004748,0.023806116,0.065976314,-0.014963634,0.013356427,-0.061816998,-0.0030205918,0.0023814924,-0.060626592,-0.024204612,-0.03402762,0.044292502,-0.048803855,-0.015671616,0.022663586,0.02453947,-0.059659522,0.030534862,0.0747481,0.022680402,-0.03639779,-0.06510112,-0.029249778,0.029589493,-0.015034117,-0.03888799,-0.056056276,-0.06532476,-0.021475637,-0.040605444,0.04822073,-0.03479791,-0.020584727,-0.03108208,-0.019139428,0.073977545,-0.004311995,-0.0041824575,-0.012132731,-0.02337523,0.01454924,0.049092002,-0.0006711311,0.009200724,0.05421732,0.0027541204,-0.008477943,-0.035130087,0.03593106,-0.00845694,0.043132327,0.054332092,-0.027990505,-0.069130644,-0.043900434,0.061691534,0.03953762,-0.034536175,0.0062068193,-0.059139706,0.037018042,-0.059600126,-0.037586804,-0.0070215873,0.026982453,-0.039679818,-0.009079109,-0.014908193,-0.042755112,-0.010403778,-0.03327969,0.06521763,0.039266054,0.07090004,-0.054030847,-0.0009152031,-0.016822243,-0.0016535545,0.04209693,0.01958047,-0.0022590808,-0.08970701,-0.018582797,0.005710547,-0.037006438,0.026364613,0.029933982,-0.009008055,0.03986807,-0.024361296,0.056776185,0.01211879,-0.03843575,-0.05000303,0.0022561443,0.017904358,-0.042656388,0.01257502,0.015469416,0.021115039,0.028956195,-0.020262018,0.036683436,-0.028326405,-0.061432227,0.0020001796,-0.042097393,0.016420484,-0.046924822,-0.032978907,0.015987819,0.03770281,-0.03387489,0.0027366725,0.0018700609,-0.007827362,0.00010222209,-0.015055646,-0.058008436,-0.04292343,-0.019844798,-0.02913227,-0.034176715,0.051215526,-0.036543902,0.025298921,-0.06671882,-0.086111866,-0.02164255,-0.06347688,0.024063056,0.018403348,-0.0012636622,-0.07692617,-0.065147325,0.011549327,-0.021143751,-0.034876045,-0.005382734,0.011031583,0.0012346406,-0.006858333,-0.028137362,0.027636291,-0.02243118,0.018035311,0.0747538,-0.04027331,0.011981637,0.025420444,-0.007859326,0.045361154,0.09359958,0.025376983,-0.037863865,0.036482323,0.015559009,-0.022903917,0.048210632,-0.009567117,0.0063755154,-0.06709433,-0.0044841943,-0.021240154,-0.0073766415,0.008460201,0.02122193,-0.0032929059,-0.022146784,-0.04135151,-0.025407452,-0.18444845,0.007845386,0.008732047,0.0075959335,-0.013118132,0.0066781417,-0.063944474,0.0079924,0.027980603,-0.025537707,0.008258412,-0.027722456,0.0548812,0.004464299,0.014343457,-0.013257154,-0.00674904,-0.025718095,-0.018686011,0.050827984,-0.051944166,-0.027893461,0.06888089,0.032582387,0.022960981,0.005809524,0.014754807,-0.00004141274,-0.018269189,-0.04122621,0.05207132,0.01777161,0.022074474,0.009745211,0.024253724,0.047017384,-0.009592493,-0.0006320089,0.010256309,0.007697271,0.04586441,-0.008394228,0.044736184,-0.057270076,-0.017005594,0.042044252,-0.00498916,0.035011575,-0.025246622,0.02378009,-0.015202604,0.058518942,-0.02495406,0.009798646,0.015701998,-0.003964664,0.020450769,-0.0050021033,0.009908616,-0.009853542,-0.0328478,0.06417719,0.012856725,-0.023314951,0.013143062,-0.017873937,-0.039656445,0.0354028,-0.00615165,0.060385507,-0.07665908,0.037528384,-0.011875846,-0.03538855,-0.047754046,0.043010283,0.019403039,0.03768388,0.03708985,0.03763588,-0.0009643,0.032422878,-0.03127558,-0.016779844,-0.052924763,-0.024679849,0.07187776,-0.035361342,-0.013520013,-0.014870548,0.057491574,0.019387173,-0.024131946,-0.0007498098,0.0017571971,-0.058685683,-0.0047523016,0.03477622,-0.018964522,0.01162243,0.0040884297,0.0016174061,0.014492061,0.059731163,0.027627602,0.017899873,0.037961226,0.018162627,-0.031760927,-0.094127186,0.01146255,-0.019190446,0.010720647,0.010158033,0.03732315,0.05755834,0.007060816,0.013163255,0.017847398,0.047603004,0.013701908,-0.045307256,0.021169264,0.0029657022,0.019271353,0.0048780735,0.016552687,0.03340847,0.0042512706,0.011666339,0.0011604636,0.025396295,0.029902115,-0.061737355,-0.014433145,0.0037016359,0.04362375,-0.079722926,-0.09080479,0.0532075,0.04192717,0.020006806,0.0074447333,-0.025935156,-0.06136519,-0.01724664,0.07001334,-0.030797355,0.0088922,-0.031412628,-0.037099224,0.027026605,-0.043561157,-0.02833815,0.037232332,0.031953588,0.03750779,0.026439331,-0.05582538,0.04305513,0.036053527,0.012332617,0.03662802,0.035053708,-0.02922709,0.037385605,-0.05704118,0.027558545,0.044653274,-0.03589159,0.0066165985,0.005371574,0.03320137,-0.038935337,0.021603363,0.008174424,-0.023048144,-0.060548693,-0.015820526,0.003685022,0.014465206,-0.012667577,0.012459114,0.024400309,0.07912402,0.0058832094,-0.0043301,-0.0035912693,-0.036435794,-0.0067935693,0.0052267285,-0.035529558,0.06288113,0.0701623,0.06110346,-0.024013786,0.0034538622,0.017301096,-0.014535691,0.0060113017,-0.0759481,0.00044961128,-0.00067903276,0.037123706,-0.009320659,-0.032027684,0.048380602,-0.04330769,0.031989902,-0.067708515,0.0066444906,0.02350364,0.03859664,0.004646827,-0.03566462,0.068759166,0.09344227,0.013065927,0.04120513,0.041263662,0.022127977,0.021192934,0.03864867,0.035711017,0.00019640599,0.030155525,0.03375229,0.041759986,0.016139261,-0.003946009,-0.01943999,-0.0053614145,0.011977899,0.057528615,0.018424017,-0.002277791,-0.022068743,-0.0018989166,-0.0012566212,-0.042783655,0.02224372,-0.01871861,-0.043473717,-0.009145425,0.0064259367,-0.03486116,-0.028445197,0.0011344815,-0.001565458,0.0110843945,0.027541801,0.07257139,-0.02717392,-0.027133511,0.0066555645,0.0010887721,0.05605102,-0.055637162,0.010694494,0.0066696866,-0.045431457,-0.015181721,0.021851355,0.0046230596,0.004713621,0.010564761,0.062122,0.021749625,-0.020277126,-0.0037661935,0.022015275,-0.030972602,-0.013230439,0.0064225895,-0.009704276,-0.009216031,0.0007438954,-0.044271506,0.016409855,-0.058041975,-0.004306665,0.007712769,0.0005493086,-0.024734195,0.04320168,-0.028686726,0.050303105,-0.004476554,-0.019961376,-0.0493043,-0.014565457,-0.09186624,0.056045085,0.07189332,0.036480524,0.030766608,0.0025777682,-0.053657684,-0.03750838,0.0205943,-0.066560835,0.0061470503,0.017303716,0.015609342,0.041568324,0.030218882,-0.004344063,-0.035145696,-0.020119162,-0.046668798,-0.04190099,0.0071124337,0.016443044,-0.01843707,0.008430451,0.041657053,0.032065824,-0.015664956,-0.011952508,-0.028886372,-0.035719257,0.028841788,0.0102175325,-0.06973641,0.024954677,0.041507304,0.03904801,-0.024589129,-0.07256726,-0.030865462,-0.00056306866,-0.0057150046,0.04853442,0.047121946,-0.024873974,0.0710451,-0.042634495,0.013023357,-0.02403565,-0.0029344049,-0.046986062,-0.014925776,-0.019939294,0.0016470711,-0.014884059,-0.018077342,-0.010163529,-0.006686656,0.0008028829,-0.009808205,-0.069780655,-0.059045516,-0.020392664,-0.015957331,-0.041616473,-0.07201486,-0.027099263,0.008497094,0.0232633,-0.08746088,0.05271768,0.023834743,-0.004297044,0.018005893,-0.022378108,0.0050084116,0.037320472,-0.01879114,0.021254547,-0.0011652038,-0.019208381,-0.03791656,-0.009941106,0.00462397,-0.016059365,-0.059681233,-0.055165946,0.025913674,-0.029298045,0.034860156,-0.050874196,0.039207984,0.0021273089,-0.023954935,0.009617427,0.0062811296,-0.03286658,-0.055035714,0.020366387,0.0071976804,0.057510983,0.02687895,-0.053772245,0.007469627,-0.02846401,0.04314652,0.030310476,-0.0055884835,0.0030732604,0.022865238,0.037175626,0.036025353,0.05449882,0.025068864,0.05195099,-0.018661628,0.020107271,0.0369264,0.033865314,0.0018418432,-0.022361044,0.006428022,0.013367231,0.030499658,0.032956623,-0.013783134,-0.020052876,0.014390159,0.0042816773,-0.040940665,0.020534819,-0.027298836,-0.024717856,-0.013990498,0.03264768,-0.01141123,-0.010882093,-0.0390162,0.026543435,0.03569699,-0.012239396,-0.0043573766,-0.0075613544,-0.04918603,-0.10088371,0.008838529,-0.018984003,0.0058434666,0.033487335,0.018064514,0.027715463,-0.017803647,0.022950443,0.0038196968,0.010081096,0.052981526,-0.038470227,0.021590354,-0.025993392,-0.023424452,0.009755935,-0.033001907],"created_at":1750347557171,"nchars":553},"2":{"title":"Timeline","path":"Timeline.md","embeddingModel":"text-embedding-004","ctime":1750345103186,"mtime":1750345103188,"tags":[],"extension":"md","metadata":{"created":"2025/06/20 00:58:23","modified":"2025/06/20 00:58:23"},"id":"535ea2cd5e229cb4a3945233c4edbbbd","content":"\n\nNOTE TITLE: [[Timeline]]\n\nMETADATA:{\"created\":\"2025/06/20 00:58:23\",\"modified\":\"2025/06/20 00:58:23\"}\n\nNOTE BLOCK CONTENT:\n\n# Sovereign Timeline\n\n```dataview\nTABLE date, time, category\nFROM \"timeline_data\"\nWHERE type = \"timeline_entry\"\nSORT date DESC, time DESC\n```\n\n## Timeline View\n```timeline\ntype: timeline_entry\ndate: date\ntitle: title\ncolor: category\n```\n\n## Recent Entries\n```dataview\nLIST\nFROM \"timeline_data\"\nWHERE type = \"timeline_entry\"\nSORT date DESC, time DESC\nLIMIT 10\n```","embedding":[-0.0011310771,0.019556755,-0.06693182,0.0030619802,0.028222227,0.06439379,0.023985164,0.032857336,0.01965609,0.01835437,-0.018709254,0.04018491,0.049920876,0.033044867,-0.015168228,-0.031078035,0.01894402,-0.010532674,-0.04479983,-0.011797785,-0.04686693,-0.05272833,0.0230693,-0.0025229743,-0.0007430699,-0.12703632,-0.013718649,-0.014874818,-0.008975672,-0.021545915,-0.011851435,0.048459776,0.048466567,-0.050680295,0.030971816,-0.0111089945,0.0052558775,0.043592226,0.013567446,-0.03301964,-0.040469874,-0.020581577,0.011933956,0.023448072,-0.025988627,-0.015060863,-0.022714665,-0.027224919,0.0030200933,0.058497325,0.073333375,0.010908021,0.0028176133,0.0012451594,-0.002198666,-0.05392869,-0.068528496,-0.051772222,0.05325997,-0.031149238,0.02501929,0.02579633,-0.033812255,-0.010012816,-0.007195519,-0.028443005,0.020456066,-0.027762061,-0.08022798,0.02362761,-0.040896427,0.049420167,-0.07211492,-0.024916375,0.009050218,0.047153264,-0.019090168,-0.028813923,-0.008629056,0.06481652,-0.026651964,0.00821646,0.05541006,0.046890646,0.031017374,0.014320571,0.0058404086,0.013356713,-0.069298804,-0.04200966,0.045633446,0.034050975,-0.036453962,0.012357403,0.12455757,-0.061957233,-0.03074222,-0.1323801,0.07505629,0.045826178,-0.02830954,-0.012516017,-0.0058653844,0.008547507,0.041226137,-0.028939892,0.0026808681,-0.030013777,-0.029913254,0.013730297,-0.0022601169,-0.039694164,0.027993415,-0.010831427,-0.0022904216,0.0017811675,0.006980357,-0.010479684,-0.046290815,-0.00027378293,0.010658021,0.0032826297,-0.04367996,0.03268895,0.040845152,0.019652331,-0.035448093,0.029793525,-0.040850695,-0.012374019,-0.0037244519,-0.03292086,0.005057997,0.02929806,-0.03713841,0.010177273,0.024712795,-0.008141222,0.031260297,-0.003426576,0.019701496,0.04639484,-0.057040304,0.052188475,-0.01102953,-0.018473616,0.013815752,0.018133556,-0.02403606,0.025166983,-0.027971098,-0.026363365,-0.0009571692,-0.058026224,0.0026862002,-0.018703496,0.024743177,-0.057307407,-0.025711186,-0.0068187546,0.024026878,-0.027571814,0.020768268,0.0833317,0.019591881,-0.020290697,-0.06955809,-0.042330768,0.018718619,0.01263549,-0.028206432,-0.04197148,-0.10957269,-0.056585174,-0.023557356,-0.0007627896,-0.018473702,-0.026674947,-0.030902896,-0.043683317,0.07768956,-0.011289377,-0.011869189,-0.044621274,-0.016294695,0.039606348,0.047030233,-0.0026188032,-0.008007164,0.03105815,-0.04697807,-0.029059099,-0.03730517,0.059174005,0.011704455,0.022288028,0.021612186,-0.052731123,-0.06719951,-0.020243896,0.054775815,0.052427888,-0.01410302,-0.01258248,-0.039785374,0.012345279,-0.052295014,-0.009759351,0.006132992,0.012739689,-0.044595636,0.01509864,-0.03440754,-0.056769457,-0.027683532,-0.015054352,0.06812976,0.042885482,0.093462765,-0.06277814,0.0012881559,-0.01460743,-0.010503165,0.009300236,-0.006414811,0.0060706325,-0.09439725,-0.0020889614,0.017616447,-0.0428613,0.04626639,0.051208872,-0.019460991,0.017712394,-0.02345303,0.036296353,0.030049365,-0.02235364,-0.03507395,-0.0059571466,0.006747496,-0.023940634,0.029532233,0.021034926,0.0099433195,0.012004251,-0.023772407,0.023720015,-0.021796348,-0.037815806,-0.011385642,-0.0319486,-0.006305757,-0.015567145,-0.009783524,-0.012215249,0.013166273,-0.04190124,0.018390307,-0.026100034,-0.012055985,-0.010681335,-0.009445182,-0.058519933,-0.044746056,-0.008077669,-0.03777923,-0.033702563,0.011870304,0.0035026253,0.044262934,-0.046789266,-0.08713372,0.0038154637,-0.05714897,0.029285772,-0.0075597623,0.035114016,-0.07810308,-0.08803649,0.0074659674,0.009678069,-0.022541545,-0.023871794,-0.002383257,0.0018490541,0.015968665,-0.04300113,0.033403233,-0.0150353005,0.0046599894,0.0870094,-0.025482954,0.040855974,0.0440367,-0.0014679765,0.06975485,0.058222894,0.009024365,-0.008580706,0.027048416,0.046286404,-0.036664054,0.045307234,0.023713276,0.005469518,-0.05772251,-0.04236271,-0.05450801,0.0053852117,0.0140229445,0.044099938,-0.01195409,-0.042782273,-0.020078821,-0.022335785,-0.18431163,-0.00040365863,-0.0104142465,0.0131530985,-0.0022904442,0.029587368,-0.058204263,0.03181142,0.024840526,-0.016836684,0.035952907,-0.0019031381,0.04494852,0.008205026,0.050150916,-0.015906502,-0.028502757,0.0016613775,-0.0012891098,0.082835004,-0.00246847,-0.038386233,0.044245463,0.05884648,0.04870299,-0.031018818,0.01608621,-0.026687326,-0.049529012,-0.05993904,0.05859272,-0.011098478,0.018801603,0.038189724,0.017981235,0.03130978,-0.021313442,-0.030378196,0.020410847,-0.0018665254,0.01562667,0.014991179,0.062387977,-0.031100431,-0.023915535,0.034531284,-0.00012280954,0.04045956,-0.0090201,0.022017092,-0.036328547,0.069236964,-0.029222822,0.009760531,-0.016110454,0.0040043322,-0.0035269493,0.0175573,0.03609578,-0.034454536,-0.04291559,0.061467618,-0.008445133,-0.06714671,0.013629499,-0.036800034,-0.014239886,0.048789024,0.026582818,0.063662276,-0.062299233,0.060433943,-0.00022056303,-0.01829714,-0.052384622,0.02683008,0.023854477,0.03812343,0.037117906,0.049544036,-0.0044344496,0.054395195,-0.03429231,-0.02413682,-0.07302916,-0.023447974,0.041846074,-0.03442689,-0.024080912,-0.029230854,0.020510744,-0.0052217892,0.026091555,-0.014228549,0.016098805,-0.060987875,-0.02477251,0.016071657,-0.036113366,-0.010656054,-0.013797127,0.008398799,0.034073856,0.02625116,0.022869848,0.012283074,0.019426305,-0.0051344736,0.009039903,-0.07468853,-0.0011174823,0.014678246,0.022577215,0.018926423,0.040254865,0.040405355,-0.03510213,0.006168979,0.015708277,0.05135241,-0.0040775295,-0.05182351,0.0025269147,0.0034768933,0.030124042,0.0030582424,0.017420683,0.016293783,-0.047796704,0.024109606,0.020112267,0.013700289,0.05122324,-0.025795246,-0.008818818,-0.0041016676,0.01184945,-0.053327672,-0.086969815,0.028022205,0.014416974,-0.00559366,0.00077942916,-0.036474846,-0.023625897,0.0015608738,0.08739526,-0.01879248,0.012244877,-0.06376644,-0.017683797,0.0484501,-0.022409018,-0.00034646326,0.06002121,0.05495294,0.036190946,0.010576723,-0.07207645,0.05101906,0.031805284,0.0244929,0.035033077,0.039695684,-0.0045142225,0.025683226,-0.048850477,0.0059109917,0.048469022,-0.054367524,-0.014656046,-0.035638068,0.02927974,-0.046178997,0.027939457,-0.030695388,0.003941876,-0.067841776,-0.0051096464,0.006725815,0.03678485,-0.0019556198,0.0033828665,0.029326685,0.047233094,0.0367409,-0.011930194,-0.024858572,-0.0171197,-0.029008672,-0.0057417294,-0.04933546,0.07945676,0.06735909,0.03344274,-0.016812474,0.0066096904,0.03408817,-0.017759722,-0.004220759,-0.072528236,-0.01649021,-0.024354413,0.004626431,0.009140396,-0.042439617,0.07677888,-0.04304289,0.016414914,-0.053221986,-0.019220078,0.044747435,0.04754458,0.004982035,-0.029593516,0.07376366,0.03427373,0.0146509325,0.047450062,0.04976976,0.005093317,0.038227268,0.035424165,0.027542807,-0.006963243,0.035771042,0.05495675,0.03155692,0.021315891,-0.0024235544,-0.0060610683,0.001041075,0.010363942,0.042778023,-0.020921875,-0.01532155,-0.010419087,-0.02091025,0.009700537,0.0029378526,0.03967597,-0.0099371495,-0.02529061,0.0037629383,0.019971142,-0.03531402,-0.043389164,0.009935568,-0.023924619,0.0066718874,-0.004126899,0.090141796,-0.005562599,-0.020424109,-0.007295558,0.012253214,0.040445026,-0.05013547,0.016967833,0.026363144,-0.0046773464,0.023202296,0.045528706,0.00561433,0.026897632,-0.0153029915,0.07803555,0.042888876,-0.02171317,-0.0020273852,-0.01573189,-0.05012185,-0.010950284,0.014405305,0.015007499,-0.010041955,0.011379634,-0.018805467,-0.011863509,-0.07785399,-0.011838897,0.0064157117,0.015108834,0.015151892,0.04261882,0.0062557184,0.06338767,0.013386687,0.007429216,-0.015053759,-0.0066458327,-0.11042996,0.01423336,0.04609686,0.022910874,0.021687517,-0.018235944,-0.050718985,-0.027145151,0.017021643,-0.0781495,0.014165843,0.028982015,0.035116352,0.017531803,0.022446869,-0.011309064,-0.013655426,-0.019886145,-0.06280578,-0.03318677,-0.010673852,0.024197116,0.00924785,0.0038744109,0.06346153,0.034328856,-0.016753078,-0.015927475,-0.017274406,-0.010337717,0.04666283,-0.014647479,-0.047998033,0.023267588,0.048710514,0.020855548,0.012176403,-0.068820074,-0.056808688,-0.0064679906,0.008686585,0.055460446,0.019510113,-0.0021160338,0.08143228,-0.029031897,-0.008106886,0.002817451,-0.0030034164,-0.007278074,-0.03989069,-0.010867196,0.010504802,-0.028076638,-0.03949442,0.03757201,-0.016156062,0.0053414055,-0.016244851,-0.013925775,-0.067189805,0.0035183358,-0.014190442,-0.029979436,-0.06395328,-0.044945523,0.010775275,-0.009611596,-0.07899212,0.046693,-0.00036549722,0.007375824,-0.011906741,-0.023189273,-0.020810928,0.029570706,0.017819118,0.022037247,-0.0056173434,0.017748462,-0.03635629,-0.023690205,-0.0152737005,-0.017560812,-0.0584909,-0.024981843,0.011431779,-0.024344299,0.0054522925,-0.03267231,0.0071395934,-0.01627165,-0.010956623,0.02412822,-0.0031137432,-0.02651492,-0.05908717,0.015577063,0.005487393,0.063362695,0.010827241,-0.059922423,0.027413677,-0.014836206,0.06923627,0.043730136,-0.028835915,0.007316326,0.0044238456,0.018596068,0.019968621,0.071457796,0.011257104,0.019354548,0.009160969,0.01134185,0.04062382,0.016471775,-0.017354866,-0.0325986,-0.027639613,0.00071226596,0.009210897,0.039390586,0.000191669,-0.012660004,0.009752428,0.021252472,-0.0382315,0.019491287,-0.032224912,-0.0026271096,0.01807426,0.01359791,0.0022134406,-0.028544081,-0.034770604,0.024058998,0.033423208,0.02240523,-0.027775483,-0.002468814,-0.033220522,-0.09726017,-0.0013505487,0.012218982,0.014259741,0.010002974,-0.0050216364,0.06611837,-0.052527785,0.036264118,-0.008780029,0.01277384,0.034876186,-0.03245098,0.013359548,-0.021196954,-0.049197264,0.029613076,-0.04108871],"created_at":1750347557175,"nchars":488},"3":{"title":"README","path":"README.md","embeddingModel":"text-embedding-004","ctime":1750345115187,"mtime":1750345115187,"tags":[],"extension":"md","metadata":{"created":"2025/06/20 00:58:35","modified":"2025/06/20 00:58:35"},"id":"36d72dfd0ac3db00200c681b07e2a9ba","content":"\n\nNOTE TITLE: [[README]]\n\nMETADATA:{\"created\":\"2025/06/20 00:58:35\",\"modified\":\"2025/06/20 00:58:35\"}\n\nNOTE BLOCK CONTENT:\n\n# Sovereign Timeline Integration\n\nThis is an Obsidian-based timeline interface integrated with the Sovereign Drive system.\n\n## Setup Instructions\n\n1. Open this folder as an Obsidian vault\n2. Install the required community plugins:\n   - Timeline\n   - Dataview\n   - Templater\n\n## Usage\n\n### Creating Timeline Entries\n1. Use the template in `templates/timeline_entry.md` for new entries\n2. Store all timeline entries in the `timeline_data` directory\n3. Make sure to fill out all metadata fields in the frontmatter\n\n### Viewing the Timeline\n1. Open `Timeline.md` for the main timeline view\n2. Use the dataview tables and timeline visualization to explore entries\n3. All entries are automatically sorted by date and time\n\n### Sovereign Data Integration\n- All timeline entries maintain links to sovereign data\n- Use the \"Sovereign Data Links\" section to reference related files\n- Timeline data is stored in the sovereign drive structure\n\n## Directory Structure\n- `.obsidian/` - Obsidian configuration\n- `templates/` - Timeline entry templates\n- `timeline_data/` - Timeline entries and attachments\n- `Timeline.md` - Main timeline view","embedding":[0.02159649,0.02299209,-0.041616086,0.01326929,0.071766965,0.04495336,0.034937765,0.03176805,-0.013591443,0.00054678007,-0.03133688,0.022483177,0.025171889,0.023497975,-0.0047079027,-0.022708453,0.015531723,0.025906589,-0.026686244,-0.008012343,-0.03570829,-0.029063119,-0.023714462,0.00199319,0.011064771,-0.11026387,0.026415115,-0.0029192788,0.016208718,-0.042281173,0.007779796,0.061838076,0.028797565,-0.057863485,0.0013270365,-0.03554967,0.0015627036,0.041476153,0.015768459,-0.033774287,-0.053652156,-0.04931095,-0.018619668,0.065213315,-0.0057430007,-0.011314214,-0.062442776,-0.014253654,-0.0034882657,0.030358525,0.0738909,-0.009826153,-0.015175188,0.014536946,0.0062992005,-0.04586353,-0.0501485,-0.06640003,0.047681894,0.0021722005,-0.030585116,-0.007248878,-0.0038673712,0.0068888166,-0.024419416,-0.015024488,-0.004658189,-0.060600773,-0.027659688,0.03495828,-0.027645996,0.035961457,-0.07574107,-0.018492782,-0.03155443,0.0664764,-0.033678062,-0.04440063,-0.038227033,0.035371233,-0.0003981974,0.03704749,0.0314022,0.012612357,0.0029532604,-0.022894694,-0.0015455526,-0.03231503,-0.06688773,-0.056978837,0.05900119,0.007073709,-0.0007165325,0.030221347,0.111922,-0.023500334,-0.07298262,-0.120021164,0.029647954,0.027480979,0.00031447154,0.0135728065,0.0012333522,-0.005821872,0.008445186,-0.023090059,-0.0036988435,-0.064252265,-0.065331794,0.032312363,0.000501247,-0.006051793,0.03695746,-0.029122565,-0.008482425,-0.023557168,0.029786905,-0.0074466057,-0.030002588,0.025510138,0.025437685,0.012011322,-0.026493378,0.05632913,0.051855255,0.0069212923,0.034604404,0.02250648,-0.026976723,0.0049826996,-0.013317143,-0.032630976,-0.032823287,0.020709245,-0.012271244,0.019982232,0.024554012,0.004830468,0.023277352,0.015206562,0.014252062,0.012959708,-0.069549516,0.05417613,0.0020287284,-0.008008274,0.03785572,0.048259486,-0.04355297,0.016321113,-0.02128196,0.020023616,-0.019695451,0.016065666,-0.035638466,-0.054187242,0.012749715,-0.0469589,-0.0147602325,0.018104672,0.041672863,-0.0022140336,0.02973246,0.102654465,0.003999555,-0.040271536,-0.033123393,-0.036957193,-0.0043023764,0.030261466,-0.04337701,-0.050445084,-0.11986874,0.001797353,-0.044466373,0.020086845,0.017154053,-0.009021826,-0.018479627,-0.015687052,0.10196255,0.020548604,-0.009701594,-0.05241227,-0.0016615326,0.015913332,-0.01704718,-0.02124319,0.008146019,0.061385814,-0.04556169,-0.0028975662,-0.011892576,0.057351183,-0.017105298,0.04413792,0.045880463,-0.0865443,-0.10884018,-0.014074105,0.06103805,0.016777294,0.018080033,-0.0018395759,-0.006337901,0.029907279,0.0073602637,-0.025497442,0.008570008,-0.019167587,-0.032084785,0.009622592,0.018989928,-0.036514774,-0.009478368,-0.03169432,0.1014472,0.050183374,0.08409899,-0.03675768,-0.022427127,-0.037475754,-0.007243647,-0.012609423,-0.0004538854,0.03814038,-0.073317766,0.023780534,-0.015232137,-0.040486306,0.028602524,0.013339504,-0.021250688,0.03382753,-0.04163252,0.032501053,0.056672476,-0.042671997,-0.062161952,-0.013329452,-0.014820341,0.04763677,0.0061035985,0.043246206,0.012526481,-0.044095837,0.0030363284,0.026752105,0.01377613,-0.04309027,-0.017819468,-0.016790913,0.0030936971,-0.029624743,-0.02811983,0.016749319,0.018052809,-0.020026933,0.0475137,-0.00005687341,0.025262978,-0.0032952891,-0.0091722915,-0.047741618,-0.052402467,-0.008088037,-0.023792595,-0.030373052,0.018700706,0.0021362007,0.05433689,-0.0491132,-0.06628732,0.0110516315,-0.059054825,0.024201026,-0.03177878,0.0016206857,-0.036805373,-0.088600926,0.02436349,0.00017200816,-0.0021457658,-0.002447375,-0.0022836386,-0.01770356,-0.016425282,-0.025932299,0.029327698,0.0045660846,0.026741125,0.07245008,-0.06535467,-0.0327293,0.012707889,0.00594898,0.06464927,0.025326671,-0.002630837,-0.04088645,0.044259764,0.02730356,-0.041463602,0.08525555,-0.027649678,0.017246827,-0.088457614,-0.044133767,-0.056093175,-0.054639008,0.013078234,0.029117776,-0.021636054,-0.035844408,0.0032895918,-0.03666572,-0.1697683,-0.004670251,-0.022864528,-0.0076800766,0.02521134,0.035460785,-0.024770997,0.007450591,0.0008261951,-0.026968094,0.020433558,-0.014622572,0.028677896,-0.05724099,0.023744058,-0.007531993,0.03926158,0.015073113,0.017039256,0.079454616,0.032536276,-0.0141524095,0.030604476,0.053331915,0.016292825,-0.026801554,0.03566897,-0.036556248,-0.027767755,-0.03388546,0.07664051,-0.0185943,0.016156862,0.028103659,0.03821418,0.011903663,-0.036481917,0.007057157,0.02256684,0.005432842,0.052681774,0.011743571,0.027317716,-0.029521748,0.025120633,0.018381858,0.015726896,0.051593393,0.0146437315,-0.015037589,-0.047288366,0.05910738,-0.02574116,-0.017985944,-0.034236927,-0.0094499355,0.032203015,0.02727662,0.000601595,-0.03512481,-0.042937692,0.042917904,0.003538034,-0.037912242,0.0019200306,-0.009701534,0.018334996,0.047777638,0.013380883,0.06512016,-0.050867047,0.030287862,0.03493821,-0.04422544,-0.092041194,0.01901056,0.046417188,0.032980934,-0.0065818317,0.008968316,-0.033414584,-0.00047595514,-0.0005050108,-0.0012536185,-0.0422253,-0.017138854,0.017924093,-0.047872487,-0.034305356,-0.028617827,0.02358698,0.008998843,0.018052096,0.01030536,0.006433554,-0.06384706,-0.0006604445,0.00077987957,-0.010078871,-0.0024288974,-0.012966406,-0.009279791,-0.00630026,0.005637638,0.020621149,0.00083493174,-0.002485759,0.012287398,-0.007932667,-0.100354396,-0.016753212,-0.010581248,0.029427426,-0.022076769,0.059343252,0.024824053,-0.034790263,0.033060867,-0.037083086,0.06582242,0.0049474463,-0.0698813,-0.023868036,0.015839702,0.046602815,0.015494245,0.05029824,0.010294789,-0.049226806,0.031658225,-0.0170761,0.023550842,0.032808583,-0.038574126,-0.0039705075,-0.020410357,-0.007782381,-0.06967911,-0.11012198,0.047190305,0.02546105,0.017092912,-0.010897924,-0.020715268,-0.0066616703,-0.010074378,0.04229264,-0.03163665,-0.012137181,-0.065640554,-0.024540963,0.036264636,-0.0105810715,0.020760814,0.073591806,0.076223955,0.06292687,0.016669223,-0.061467607,0.023553573,0.034726877,0.017478995,0.05226565,0.0334659,-0.012088817,0.056382637,0.01800082,0.0110749295,0.06109754,-0.040429596,-0.04231783,-0.0027800961,-0.0025256334,-0.050200913,0.012260012,-0.034060214,-0.00889099,-0.04932263,-0.013540494,-0.0034997312,0.017077878,0.0064627696,-0.0064128567,0.024968842,0.05314624,0.040271565,-0.012860848,-0.023117853,-0.002862406,-0.017602677,-0.016453752,-0.010772685,0.025518963,0.03555912,0.077658,-0.023084534,0.012531292,0.016080434,-0.006027486,-0.015136833,-0.04733779,-0.051409077,-0.029567689,0.01703788,-0.0025011008,-0.03246373,0.03789543,-0.0061335107,-0.036968045,-0.021320475,0.014586298,0.05629011,0.028492548,0.033613056,-0.047589093,0.07855914,0.036171395,0.015936976,0.026879191,0.044732817,0.019904004,0.011203309,0.05068365,0.036933165,-0.029175205,0.0197503,0.023591757,0.01381463,0.05182708,0.021204185,-0.003220463,0.0014407373,-0.0013487512,0.065577514,-0.035650756,-0.021620164,-0.0010015462,0.0102782715,-0.007068316,-0.018578378,-0.027096134,-0.042138,-0.035217702,-0.014402708,0.05742136,-0.0391824,-0.017636275,-0.01514804,0.009823041,-0.029661082,-0.00717661,0.04383986,-0.006281151,-0.009729749,-0.0030733128,-0.025053393,0.0423244,-0.025127463,0.0041622887,0.026510356,-0.00679898,0.024533696,0.03647064,0.0029011297,-0.0013301001,-0.0021302493,0.07702534,0.051238578,-0.041042108,-0.013364254,-0.034892634,-0.053407513,-0.0013984143,0.005363866,-0.0075312876,-0.03655641,0.009397795,-0.005224282,0.014720302,-0.046723653,-0.032667693,0.03239308,0.020872852,0.0025605392,0.044223506,-0.035705574,0.07672199,-0.0003168547,-0.018714469,-0.044291165,0.0027402893,-0.06918529,0.016940244,0.05944285,0.025621396,0.034156613,-0.028349653,-0.029870933,-0.03031858,0.022131387,-0.050121535,0.028877798,0.011218828,0.045381863,0.018448059,0.0070176,-0.0031883908,0.0245323,-0.017661663,-0.06405454,0.0050745,-0.026013056,0.07268301,0.0059914417,-0.0055996208,0.020054234,0.06298105,-0.044405878,-0.0042527076,-0.07023171,0.009343912,0.037629224,-0.011895845,-0.052517466,0.023784602,0.031120421,0.022914523,0.024276493,-0.046866182,-0.03918503,-0.015833875,-0.013114138,0.04332729,0.04349179,-0.011474927,0.060119618,-0.019686773,0.000866159,-0.03644705,-0.023288742,0.000091471724,-0.043885864,-0.008234469,0.0008769081,-0.012837781,-0.0464489,0.027722294,-0.007957248,0.005704316,0.0017163184,-0.028399838,-0.06632625,0.012276286,-0.009317274,-0.01015951,-0.041465435,-0.014482686,0.022877315,-0.0038725962,-0.04212216,0.01965315,-0.0079746535,0.011547937,-0.009392641,-0.04982793,-0.0029161102,0.04790249,-0.0096013155,0.030882245,0.003255578,-0.0035378074,-0.04131445,-0.025872594,-0.031883083,-0.0413162,-0.06309973,-0.03520611,0.008861036,-0.008442725,0.00039651382,-0.028394558,0.01592674,0.0042351447,-0.046117228,0.018484574,0.017453996,-0.03796782,-0.05118156,0.014642795,-0.013451932,0.04925564,0.000033211512,-0.059965834,0.019109178,-0.030856948,0.054202445,0.059383865,-0.00021496393,0.014463047,0.017612284,0.0039875912,0.035502285,0.0685604,0.032427978,0.022613907,0.017861143,0.03020799,0.05644093,-0.0033931525,-0.0041024527,-0.03504621,-0.0067991507,-0.033285078,0.016472384,-0.031457186,-0.019861318,-0.025942858,0.050066598,-0.009391003,-0.051075388,0.005434878,-0.011570697,-0.03747309,-0.015372146,0.015234878,-0.010245,-0.056737192,-0.045677003,0.021429185,0.028864458,-0.010075874,0.0266093,-0.029281005,-0.0090516405,-0.106162615,0.010411575,0.027508916,0.027924279,0.033604417,0.020114858,0.052449808,-0.042169902,0.035331253,0.02430445,-0.0016353052,0.05281725,-0.020580102,-0.022843922,-0.05923845,-0.033086773,0.07228852,-0.0014207498],"created_at":1750347557177,"nchars":1251}},"count":3},"sorting":{"language":"english","sortableProperties":["id","title","path","content","embeddingModel","created_at","ctime","mtime","extension"],"sortablePropertiesWithTypes":{"id":"string","title":"string","path":"string","content":"string","embeddingModel":"string","created_at":"number","ctime":"number","mtime":"number","extension":"string"},"sorts":{"id":{"docs":{"1":0,"2":2,"3":1},"orderedDocs":[[1,"1a1aad29fc9ba87a945b88a84cb614fb"],[3,"36d72dfd0ac3db00200c681b07e2a9ba"],[2,"535ea2cd5e229cb4a3945233c4edbbbd"]],"type":"string"},"title":{"docs":{"1":2,"2":1,"3":0},"orderedDocs":[[3,"README"],[2,"Timeline"],[1,"timeline_entry"]],"type":"string"},"path":{"docs":{"1":1,"2":2,"3":0},"orderedDocs":[[3,"README.md"],[1,"templates/timeline_entry.md"],[2,"Timeline.md"]],"type":"string"},